tree
version=v2
num_class=5
num_tree_per_iteration=5
label_index=0
max_feature_idx=126
objective=multiclass num_class:5
feature_names=Column_0 Column_1 Column_2 Column_3 Column_4 Column_5 Column_6 Column_7 Column_8 Column_9 Column_10 Column_11 Column_12 Column_13 Column_14 Column_15 Column_16 Column_17 Column_18 Column_19 Column_20 Column_21 Column_22 Column_23 Column_24 Column_25 Column_26 Column_27 Column_28 Column_29 Column_30 Column_31 Column_32 Column_33 Column_34 Column_35 Column_36 Column_37 Column_38 Column_39 Column_40 Column_41 Column_42 Column_43 Column_44 Column_45 Column_46 Column_47 Column_48 Column_49 Column_50 Column_51 Column_52 Column_53 Column_54 Column_55 Column_56 Column_57 Column_58 Column_59 Column_60 Column_61 Column_62 Column_63 Column_64 Column_65 Column_66 Column_67 Column_68 Column_69 Column_70 Column_71 Column_72 Column_73 Column_74 Column_75 Column_76 Column_77 Column_78 Column_79 Column_80 Column_81 Column_82 Column_83 Column_84 Column_85 Column_86 Column_87 Column_88 Column_89 Column_90 Column_91 Column_92 Column_93 Column_94 Column_95 Column_96 Column_97 Column_98 Column_99 Column_100 Column_101 Column_102 Column_103 Column_104 Column_105 Column_106 Column_107 Column_108 Column_109 Column_110 Column_111 Column_112 Column_113 Column_114 Column_115 Column_116 Column_117 Column_118 Column_119 Column_120 Column_121 Column_122 Column_123 Column_124 Column_125 Column_126
feature_infos=[0:22] [0:24] [0:48] [0:52] [0:8] [0:10] [0:49] [0:177] [0:10] [0:19] [0:11] [0:11] [0:5] [0:5] [0:55] [0:46] [0:6] [0:49] [0:5] [0:7] [0:1] [0:26] [0:45] [0:32] [0:45] [0:18] [0:20] [0:31] [0:15] [0:12] [0:12] [0:18] [0:26] [0:259] [0:10] [0:16] [0:67] [0:7] [0:11] [0:6] [0:17] [0:5] [0:14] [0:19] [0:37] [0:5] none [0:8] [0:9] [0:29] [0:13] none [0:7] [0:13] [0:44] [0:10] [0:8] [0:14] [0:5] [0:43] [0:177] [0:19] [0:6] [0:6] [0:5] [0:4] [0:19] [0:11] [0:66] [0:5] [0:39] [0:36] [0:10] [0:11] [0:24] [0:9] [0:24] [0:5] none [0:14] [0:87] [0:19] [0:20] [0:11] [0:11] [0:9] [0:9] [0:24] [0:31] [0:12] [0:36] [0:6] [0:16] [0:29] [0:10] [0:12] [0:7] [0:265] [0:16] [0:6] [0:6] [0:16] [0:10] [0:4] [0:16] [0:8] [0:11] [0:243] [0:14] [0:6] [0:310] [0:66] [0:7] [0:32] [0:63] [0:10] [0:19] [0:7] [0:7] [0:6] [0:3] none [0:1184] [0:356] [0:29] [0:363] [0:386]
tree_sizes=4859 4806 4819 4869 4770 4848 4803 4816 4861 4827 4874 4824 4833 4883 4796 4862 4843 4853 4869 4811 4860 4811 4832 4838 4785 4863 4814 4829 4860 4804 4855 4855 4810 4907 4819 4836 4822 4838 4857 4807 4852 4844 4850 4882 4825 4833 4811 4852 4882 4822 4869 4816 4847 4878 4806 4833 4790 4842 4880 4812 4859 4805 4868 4898 4843 4850 4844 4839 4877 4830 4864 4817 4838 4891 4831 4860 4837 4864 4868 4838 4830 4825 4859 4883 4859 4839 4802 4847 4865 4831 4857 4838 4845 4879 4865 4883 4812 4872 4873 4829 4834 4852 4879 4862 4822 4870 4842 4839 4873 4837 4862 4847 4827 4862 4834 4859 4833 4839 4890 4847 4869 4874 4874 4890 4853 4851 4850 4884 4893 4823 4909 4866 4875 4903 4821 4880 4851 4888 4911 4808 4873 4878 4884 4872 4856 4852 4835 4866 4866 4852 4891 4816 4871 4850 4827 4846 4798 4874 4865 4856 4884 4841 4838 4857 4852 4877 4840 4905 4859 4854 4873 4821 4865 4873 4838 4844 4839 4869 4857 4856 4873 4864 4859 4905 4847 4878 4857 4864 4884 4846 4877 4854 4887 4865 4842 4873 4841 4834 4880 4844 4883 4858 4873 4861 4851 4859 4878 4836 4860 4841 4890 4844 4876 4876 4854 4892 4838 4871 4891 4846 4882 4837 4877 4875 4843 4884 4842 4870 4876 4853 4869 4848 4882 4868 4851 4890 4856 4899 4878 4832 4873 4865 4884 4877 4871 4862 4857 4886 4871 4853 4873 4872 4870 4930 4850 4861 4863 4872 4872 4827

Tree=0
num_leaves=60
num_cat=0
split_feature=0 97 12 126 43 8 57 110 23 70 54 0 33 110 126 44 88 0 57 110 3 0 0 42 97 15 72 3 3 126 110 125 87 114 23 125 110 23 71 38 71 125 126 15 61 70 70 85 48 104 54 126 90 0 111 110 22 44 110
split_gain=351.242 80.6467 58.0975 43.9203 31.8148 24.7027 21.7077 15.0408 14.9105 13.4961 12.5036 9.27246 9.92647 8.87856 12.2684 9.32515 8.59871 8.28674 7.6535 7.37673 7.6853 6.93694 6.84023 8.48845 6.83933 8.10137 6.67048 5.44766 5.33617 5.2729 8.64113 5.19606 4.81753 4.7991 5.55791 4.54545 4.4874 4.0016 3.61462 3.57905 3.54257 3.18875 3.01706 4.15883 2.86987 2.76719 2.68542 2.59943 2.62029 3.22999 2.588 2.55754 2.51116 2.45028 2.13084 4.17239 2.07723 2.41621 2.06977
threshold=1.5000000000000002 4.5000000000000009 1.0000000180025095e-35 8.5000000000000018 1.0000000180025095e-35 1.0000000180025095e-35 1.0000000180025095e-35 19.500000000000004 1.0000000180025095e-35 4.5000000000000009 1.0000000180025095e-35 3.5000000000000004 13.500000000000002 7.5000000000000009 18.500000000000004 1.0000000180025095e-35 1.0000000180025095e-35 1.0000000180025095e-35 1.0000000180025095e-35 8.5000000000000018 2.5000000000000004 1.0000000180025095e-35 1.0000000180025095e-35 1.0000000180025095e-35 1.5000000000000002 1.0000000180025095e-35 1.0000000180025095e-35 1.0000000180025095e-35 1.0000000180025095e-35 16.500000000000004 8.5000000000000018 12.500000000000002 1.0000000180025095e-35 6.5000000000000009 2.5000000000000004 10.500000000000002 1.5000000000000002 1.0000000180025095e-35 1.0000000180025095e-35 1.0000000180025095e-35 1.0000000180025095e-35 23.500000000000004 11.500000000000002 1.0000000180025095e-35 1.5000000000000002 1.0000000180025095e-35 1.0000000180025095e-35 1.0000000180025095e-35 1.0000000180025095e-35 2.5000000000000004 3.5000000000000004 12.500000000000002 1.0000000180025095e-35 4.5000000000000009 4.5000000000000009 19.500000000000004 2.5000000000000004 1.0000000180025095e-35 4.5000000000000009
decision_type=2 2 2 2 2 2 2 2 2 2 2 2 2 2 2 2 2 2 2 2 2 2 2 2 2 2 2 2 2 2 2 2 2 2 2 2 2 2 2 2 2 2 2 2 2 2 2 2 2 2 2 2 2 2 2 2 2 2 2
left_child=1 3 5 21 16 6 19 -4 9 17 -6 -8 -13 14 -12 -16 29 24 22 20 42 26 23 31 -5 51 37 -7 -21 36 32 45 41 54 -35 -11 -3 39 -23 47 -20 58 -2 -44 -18 -10 -29 48 49 -1 -39 52 -26 -30 -15 -56 -38 -58 -31
right_child=2 4 7 8 10 27 11 -9 18 35 13 12 -14 33 15 -17 44 -19 40 28 -22 38 -24 -25 25 -27 -28 46 53 30 -32 -33 -34 34 -36 -37 56 50 -40 -41 -42 -43 43 -45 -46 -47 -48 -49 -50 -51 -52 -53 -54 -55 55 -57 57 -59 -60
leaf_value=-0.0010304054437909988 0.0068548389650400646 0.0023706897434874873 0.023670213647741606 0.012500000465661298 0.011458333760189524 0.011250000419095163 -0.0023919753977500015 0.0079545457508753709 0.0011513158323635403 0.010795454947616577 -0.0012212644133117361 0.014583333876604841 -0.0010416667054717749 -0.005066288067521814 0.016379310955004455 0.0025390625945874512 -0.0056586341552121366 0.015000000558793558 0.0033653847407549647 -0.0015625000582076614 0.023437500873114931 0.01079545494761657 0.012771739606219152 0.011778846592642375 0.00026041667636794361 -0.002217742018101198 -0.0056372551119648999 0.025000000931322583 0.0054687502037268189 0.006770833585566534 -0.0037452291471542437 -0.0024493244155687679 0.0087500003259629085 0.0066176473053500967 -0.004017857292533988 0.022159091734581388 -0.0050966609983012666 -0.0038043479678099602 0.0012931034964477203 0.0059782610922727939 -0.0041940791036100405 -0.0034722223515725827 0.017398649296798827 0.0081730772275477714 -0.0028072034944069861 0.0083333336437741989 0.016847826714586966 0.0045673078624531667 -0.0054878050824854474 0.0054687502037268181 0.0026785715283559925 0.011413043903429881 0.0086309527024804183 0.013636364144357777 0.0037946429985043213 -0.0062500002328306492 -0.0047256099321402456 0.0018145161966282531 0.00029069768524793714
leaf_count=5550 31 29 141 25 30 25 81 22 38 22 87 27 24 132 29 32 1691 25 26 20 20 22 23 26 24 62 102 28 24 24 262 74 25 34 28 22 569 230 29 23 76 45 37 26 118 30 23 26 41 24 21 23 21 22 28 24 41 31 43
internal_value=0 -0.180919 1.26928 -0.0678626 -0.406383 0.897229 0.677083 2.15491 0.426741 0.770089 0.0456958 0.132576 0.723039 -0.0380711 0.304054 0.911885 -0.472985 0.555556 0.164249 1.07639 1.34868 -0.110003 0.373037 0.249256 0.403226 0.240385 -0.115506 1.80099 0.606061 -0.347287 -0.186404 0.0792254 0.173358 -0.243902 0.181452 1.64773 -0.443097 -0.107777 0.539216 -0.0980976 -0.226716 0.0167411 1.13697 1.35913 -0.547264 0.431985 2.13235 -0.100935 -0.103517 -0.100242 -0.326195 0.661765 0.416667 0.9375 -0.387228 -0.0841346 -0.473869 -0.190972 0.261194
internal_count=10438 9887 551 6585 3302 388 312 163 517 224 424 132 51 394 148 61 2878 180 293 180 114 6068 191 168 155 130 6017 76 66 1069 399 142 137 246 62 44 670 5915 51 5664 102 112 94 63 1809 68 51 5641 5615 5574 251 68 45 46 184 52 641 72 67
shrinkage=0.01


Tree=1
num_leaves=60
num_cat=0
split_feature=25 26 122 104 21 21 122 21 23 122 22 125 57 25 122 33 44 33 43 33 125 21 15 54 29 7 26 71 107 33 67 122 22 25 15 122 21 22 24 90 114 122 104 125 7 7 21 36 70 122 107 3 76 33 33 43 34 111 70
split_gain=242.042 69.0091 60.9138 34.0461 27.5737 26.8243 20.8784 16.1121 14.2851 12.7811 9.19828 8.51138 6.96791 6.67178 7.44483 6.46393 6.97233 6.36967 7.75533 6.36514 7.47413 6.27622 6.27451 6.02679 5.48893 5.36654 5.27778 5.18952 4.80613 4.39816 4.158 4.13781 4.10269 4.08834 3.68087 3.67444 5.90438 3.55801 4.12585 3.53251 3.3892 4.77463 3.32332 2.8125 2.69719 2.38095 2.34722 2.19765 2.12585 1.991 1.95313 1.85367 1.82796 1.94366 1.75155 1.64538 1.61873 1.61811 2.66447
threshold=1.0000000180025095e-35 1.5000000000000002 22.500000000000004 1.0000000180025095e-35 2.5000000000000004 1.0000000180025095e-35 61.500000000000007 2.5000000000000004 1.5000000000000002 84.500000000000014 2.5000000000000004 16.500000000000004 1.0000000180025095e-35 3.5000000000000004 33.500000000000007 6.5000000000000009 1.0000000180025095e-35 3.5000000000000004 1.0000000180025095e-35 10.500000000000002 16.500000000000004 3.5000000000000004 1.0000000180025095e-35 3.5000000000000004 1.0000000180025095e-35 5.5000000000000009 1.0000000180025095e-35 1.5000000000000002 10.500000000000002 24.500000000000004 1.0000000180025095e-35 66.500000000000014 1.5000000000000002 1.5000000000000002 1.0000000180025095e-35 18.500000000000004 1.5000000000000002 1.0000000180025095e-35 1.0000000180025095e-35 1.0000000180025095e-35 2.5000000000000004 9.5000000000000018 1.0000000180025095e-35 30.500000000000004 3.5000000000000004 13.500000000000002 7.5000000000000009 1.0000000180025095e-35 1.0000000180025095e-35 31.500000000000004 12.500000000000002 1.5000000000000002 7.5000000000000009 10.500000000000002 5.5000000000000009 1.5000000000000002 1.0000000180025095e-35 1.0000000180025095e-35 2.5000000000000004
decision_type=2 2 2 2 2 2 2 2 2 2 2 2 2 2 2 2 2 2 2 2 2 2 2 2 2 2 2 2 2 2 2 2 2 2 2 2 2 2 2 2 2 2 2 2 2 2 2 2 2 2 2 2 2 2 2 2 2 2 2
left_child=1 2 5 8 12 17 25 19 27 13 31 32 24 14 30 16 -6 18 57 20 49 50 -8 -23 52 39 46 35 42 -24 -10 -9 40 -29 -20 -2 -37 38 -26 -3 41 -7 48 -41 47 -28 -17 -43 -27 -5 -16 -19 54 -54 55 -4 -14 -1 -59
right_child=3 6 4 7 15 11 22 10 9 -11 -12 -13 56 -15 21 26 -18 51 34 -21 -22 23 29 -25 37 28 45 33 -30 -31 -32 -33 -34 -35 -36 36 -38 -39 -40 43 -42 44 -44 -45 -46 -47 -48 -49 -50 -51 -52 -53 53 -55 -56 -57 -58 58 -60
leaf_value=-0.0017475441800728956 0.016379310955004455 0.019212963678701615 -0.0039109282894060054 0.0028645834400473796 0.00014204545983706018 0.0066176473053500984 -0.0062500002328306475 0.010937500407453631 0.023005320005951107 0.0037500001396983894 0.017943549055546057 0.011842105704310704 -0.0058864167405193839 0.025000000931322597 0.010937500407453631 -0.0033333334575096798 0.01071428611342397 -0.0046663853089715318 0.0072443184516900686 -0.0034926471889347743 0.010991379719805624 0.010119047996011528 0.0082589288790976406 0.023511905637791486 -0.0048295456344600463 0.0041666668218870951 0.0086309527024804201 0.0006944444703145164 0.015056818742728382 -0.0021739131244628345 0.014889706437037723 -0.00029761905870622136 0.010119047996011528 0.010000000372529039 -0.0012500000465661299 0.0025000000931322598 0.01505681874272838 0.0036585367216569655 0.0041666668218870995 0.0062500002328306492 0.0072916669383024241 -0.0015625000582076623 0.00069444447031451651 0.01562500058207662 -0.0029166667753209698 0.00069444447031451651 0.0020833334109435497 0.0065340911525047689 0.011607143289542635 -0.004687500174622986 0.0031250001164153242 0.00054347828111570864 0.0021634616190567631 -0.0048913045300413771 -0.005110677273720895 0.0011904762348248857 -0.0014423077460378421 -0.0048793861466835771 0.0010416667054717749
leaf_count=5497 29 27 334 24 44 34 34 20 47 25 31 38 1719 29 20 150 35 296 44 68 29 21 28 21 66 21 21 36 22 23 34 21 21 25 25 25 22 41 21 20 30 20 27 20 75 27 30 22 28 20 20 23 26 23 768 21 26 114 30
internal_value=0 -0.241933 -0.26576 0.945767 -0.458122 -0.162905 0.675 0.387324 1.28178 1.56394 1.06771 0.416667 -0.509031 1.71875 1.57975 0.0468241 0.482595 -0.185976 -0.172395 0.0398936 0.402397 1.20427 -0.0367647 1.68155 -0.411058 1.04167 -0.104167 0.834854 0.778061 0.355392 1.95988 0.518293 0.272277 0.45082 0.416667 1.14309 0.837766 -0.0634766 -0.265805 1.42724 0.186464 0.0786424 0.567434 1.09375 -0.090812 0.416667 -0.243056 0.267857 0.841837 -0.0568182 0.703125 -0.429075 -0.449019 -0.114796 -0.463602 -0.360916 -0.58202 -0.1796 -0.364583
internal_count=10438 9871 9621 567 3352 6269 250 213 354 217 72 240 3045 192 163 307 79 6029 5710 141 73 82 85 42 1300 165 228 137 98 51 81 41 202 61 69 76 47 128 87 67 181 151 76 40 117 48 180 42 49 44 40 319 1172 49 1123 355 1745 5641 144
shrinkage=0.01


Tree=2
num_leaves=60
num_cat=0
split_feature=48 126 125 72 79 115 5 25 81 122 79 50 22 80 70 88 126 70 60 122 25 70 76 70 81 44 83 76 122 67 68 124 60 126 104 44 22 70 29 116 115 67 110 76 124 114 7 122 125 59 126 68 60 122 122 98 70 111 111
split_gain=197.728 154.212 59.9573 41.9349 29.4811 19.7027 20.5124 18.8757 19.0148 17.4754 15.7766 15.76 14.5347 12.8188 13.4006 12.1984 11.5875 10.2142 9.24621 9.7239 9.80363 9.07698 8.51613 7.70524 7.50066 7.28033 7.08388 11.2088 8.91758 6.7912 6.86122 6.3068 6.12239 7.73379 6.61765 6.10513 6.04232 5.46493 5.43965 5.51332 5.41957 8.87623 6.17665 6.68528 4.92029 5.82957 4.68663 7.88872 12.2771 4.47672 5.20081 8.09012 4.44268 4.89292 4.43892 4.40994 4.64819 4.82143 4.45286
threshold=1.0000000180025095e-35 15.500000000000002 17.500000000000004 1.0000000180025095e-35 1.0000000180025095e-35 1.0000000180025095e-35 1.0000000180025095e-35 1.0000000180025095e-35 1.0000000180025095e-35 63.500000000000007 1.0000000180025095e-35 1.5000000000000002 1.0000000180025095e-35 9.5000000000000018 1.5000000000000002 1.5000000000000002 25.500000000000004 2.5000000000000004 4.5000000000000009 83.500000000000014 1.0000000180025095e-35 1.0000000180025095e-35 2.5000000000000004 7.5000000000000009 1.0000000180025095e-35 1.0000000180025095e-35 1.0000000180025095e-35 1.5000000000000002 49.500000000000007 1.5000000000000002 7.5000000000000009 3.5000000000000004 1.5000000000000002 7.5000000000000009 1.0000000180025095e-35 1.0000000180025095e-35 1.0000000180025095e-35 3.5000000000000004 1.0000000180025095e-35 1.0000000180025095e-35 1.0000000180025095e-35 1.0000000180025095e-35 15.500000000000002 3.5000000000000004 1.0000000180025095e-35 1.5000000000000002 2.5000000000000004 1.0000000180025095e-35 3.5000000000000004 2.5000000000000004 3.5000000000000004 1.5000000000000002 5.5000000000000009 15.500000000000002 37.500000000000007 1.0000000180025095e-35 1.5000000000000002 1.0000000180025095e-35 1.5000000000000002
decision_type=2 2 2 2 2 2 2 2 2 2 2 2 2 2 2 2 2 2 2 2 2 2 2 2 2 2 2 2 2 2 2 2 2 2 2 2 2 2 2 2 2 2 2 2 2 2 2 2 2 2 2 2 2 2 2 2 2 2 2
left_child=1 3 10 4 5 7 55 8 11 12 21 15 17 14 -4 26 18 32 -3 20 24 -2 -17 35 25 40 27 44 38 30 -16 -31 -5 -34 -35 54 -23 -21 39 49 42 -42 43 -20 45 46 47 -1 -49 50 -29 -52 53 -47 -19 56 -7 -58 -59
right_child=2 16 13 9 -6 6 -8 -9 -10 -11 -12 -13 -14 -15 29 22 -18 23 19 37 -22 36 -24 -25 -26 -27 -28 28 -30 31 -32 -33 33 34 -36 -37 -38 -39 -40 -41 41 -43 -44 -45 -46 52 -48 48 -50 -51 51 -53 -54 -55 -56 -57 57 58 -60
leaf_value=0.004034734366386932 0.005324074272411293 -0.0038461539894342456 -0.0018750000698491947 0.00096153849735856141 -0.0024174529202458171 0.0063701925450004694 0.00074626868451709244 -0.0019261007006836591 -0.0020270271025396702 -0.00069444447031451651 0.0036184211874282701 0.019318182537840189 0.0024305556461008079 -0.0053571430567119849 0.0047794119427528496 0.012567204769240121 -0.0025356091317868942 0.020383523486618139 -0.0024003624082610466 -0.0055706523814360136 -0.0038461539894342456 0.016133218594088804 0.0028963415713117641 0.0051136365541341678 -0.0018895349541115916 0.0066071431032781146 -0.00059840427761144509 0.012792969226575236 -0.002217742018101198 -0.00015243903006904018 0.014436620256115864 0.011413043903429881 0.015885417258444567 0.012132353393141844 0.0011029412175583499 0.010465116668925738 0.0062500002328306492 0.0037500001396983894 0.00058593752182787336 0.0015625000582076623 0.013839286229839289 -0 0.0087500003259629085 0.0062500002328306492 6.6489364179049459e-05 0.013095238583073727 0.0010680380144710603 0.01394230821169914 0.0041666668218870995 0.015740741327129042 0.0011363636786964817 0.0087269588504501686 0.014224138460924924 0.0028645834400473809 0.01328125049476513 0.016709184295935001 0.019791667403963712 0.0060606062863812326 0.015740741327129042
leaf_count=5211 27 143 50 26 212 52 67 159 148 45 38 22 54 35 34 93 1018 88 138 92 78 578 41 22 86 175 94 64 31 41 71 23 48 34 34 43 20 25 32 36 28 30 25 35 94 21 158 65 105 27 55 217 29 48 40 49 24 33 27
internal_value=0 0.328484 1.18798 0.439821 0.407714 0.427378 0.912698 0.409259 0.423779 0.973502 1.46776 0.438169 1.09415 0.457677 0.616438 0.433052 -0.126135 1.23134 0.0255848 0.107971 0.19958 1.535 0.960821 1.49611 0.287718 0.382831 0.421803 0.429114 0.693994 0.85429 1.13095 0.400391 0.871479 1.04526 0.661765 1.62281 1.58027 -0.357906 0.759861 0.816103 0.192871 0.668103 0.0536616 -0.0650289 0.40776 0.414449 0.406888 0.415699 0.790441 0.881543 0.825893 0.71921 0.841837 0.597826 1.81641 1.21622 1.05239 1.30952 1.04167
internal_count=10438 9521 917 7648 7214 7002 252 6750 6591 434 663 6443 389 254 219 6421 1873 335 855 712 595 625 134 193 517 431 6287 6193 462 169 105 64 142 116 68 171 598 117 431 399 256 58 198 173 5731 5637 5539 5381 170 363 336 272 98 69 128 185 136 84 60
shrinkage=0.01


Tree=3
num_leaves=60
num_cat=0
split_feature=0 122 21 82 55 21 43 53 26 90 36 107 24 7 17 122 107 11 33 126 100 111 81 43 126 104 60 60 107 126 76 33 110 123 79 11 81 114 123 90 100 33 110 36 33 74 126 33 111 126 123 33 7 17 123 33 57 123 74
split_gain=31.9855 21.3591 27.6359 17.7115 16.4697 14.4131 7.69366 6.93617 6.34197 6.01146 8.66364 5.63886 5.41763 5.29189 5.01835 5.45384 6.50166 7.42094 5.8716 5.71986 4.45581 4.40909 4.11225 4.07916 4.8058 6.27289 6.45499 5.07137 4.46615 4.08919 4.00623 4.73434 7.99065 3.92748 4.73249 7.17188 5.15152 5.02013 5.61927 6.2076 4.916 6.20613 5.7972 4.71245 11.3618 4.62517 4.73611 4.38158 4.54104 4.27021 4.00043 3.75306 5.06366 3.58164 4.52875 3.46217 4.62797 4.38533 3.69688
threshold=1.5000000000000002 24.500000000000004 1.0000000180025095e-35 1.0000000180025095e-35 1.0000000180025095e-35 1.0000000180025095e-35 1.0000000180025095e-35 1.5000000000000002 1.0000000180025095e-35 1.0000000180025095e-35 1.5000000000000002 3.5000000000000004 7.5000000000000009 2.5000000000000004 9.5000000000000018 129.50000000000003 17.500000000000004 1.0000000180025095e-35 22.500000000000004 24.500000000000004 1.5000000000000002 3.5000000000000004 1.0000000180025095e-35 1.0000000180025095e-35 20.500000000000004 2.5000000000000004 21.500000000000004 7.5000000000000009 10.500000000000002 28.500000000000004 1.5000000000000002 3.5000000000000004 2.5000000000000004 13.500000000000002 1.0000000180025095e-35 1.0000000180025095e-35 1.0000000180025095e-35 2.5000000000000004 44.500000000000007 2.5000000000000004 1.0000000180025095e-35 7.5000000000000009 13.500000000000002 1.0000000180025095e-35 7.5000000000000009 1.0000000180025095e-35 10.500000000000002 3.5000000000000004 1.5000000000000002 3.5000000000000004 40.500000000000007 7.5000000000000009 3.5000000000000004 2.5000000000000004 47.500000000000007 6.5000000000000009 1.0000000180025095e-35 21.500000000000004 1.0000000180025095e-35
decision_type=2 2 2 2 2 2 2 2 2 2 2 2 2 2 2 2 2 2 2 2 2 2 2 2 2 2 2 2 2 2 2 2 2 2 2 2 2 2 2 2 2 2 2 2 2 2 2 2 2 2 2 2 2 2 2 2 2 2 2
left_child=1 5 3 4 14 6 9 8 12 30 11 -11 23 -13 15 16 19 18 22 20 33 -2 53 24 -4 26 27 -26 -29 -30 -1 -32 -33 49 37 36 -36 38 43 -40 42 -42 -39 44 45 46 47 -35 -49 -3 55 52 -51 -18 -55 57 -57 -45 -59
right_child=21 2 7 -5 -6 -7 -8 -9 -10 10 -12 13 -14 -15 -16 -17 17 -19 -20 -21 -22 -23 -24 -25 25 -27 -28 28 29 -31 31 32 -34 34 35 -37 -38 40 39 -41 41 -43 -44 50 -46 -47 -48 48 -50 51 -52 -53 -54 54 -56 56 -58 58 -60
leaf_value=-0.00062670923027472326 -0.0054651828519957498 -0.00081521742167356252 -0.0023840207073683919 -0.0034567040393867839 0.014020270792566051 -0.0042862023454658281 -0.0053738319758917727 0.0034902598702820507 -0.0039522060295840867 -0.0018793706993826425 0.0084558826679473481 0.0082848840295662082 0.0069711541058495698 0.00056089745679249411 0.010000000372529039 -0.0031762296265204939 0.0015625000582076623 0.010969388163743588 0.012500000465661298 -0.002064732219774411 -0.0038461539894342456 -0.0015486726240642316 -0.0011194030267756385 -0.0037665564317058875 -0.0025000000931322598 -0.0042553193074591654 -0.0042338711254659234 0.010863095642777081 -0.0023437500873114922 0.0066576089436674304 -0.0052734376964508603 0.0052989132408781591 -0.0046052633294541628 0.0033653847407549647 0.0053977274738082883 0.012500000465661298 -0.0010416667054717749 -0.0015935431057217217 0.0011029412175583495 0.011111111525032264 -0.0017857143522373284 0.011250000419095168 0.0066810347316465556 -0.0045758930276081538 -0.002052238882422004 -0.00024038462433964035 0.0018145161966282531 0.0087962966239838753 0.017788462201133386 0.015740741327129035 -0.0040697675934711205 0.0015625000582076623 0.0041666668218870995 0.0032986112339939526 0.012980769714340579 0.0048259495468692352 0.00099809889649767015 -0.00025000000931322598 0.0062500002328306492
leaf_count=5485 438 23 194 179 37 366 107 77 340 143 51 43 26 78 25 61 72 49 20 112 39 113 67 151 25 47 31 42 24 46 128 46 57 26 110 30 60 302 34 45 21 25 29 56 67 26 31 54 26 27 43 20 21 36 26 158 263 125 35
internal_value=0 -0.0285729 0.0853532 0.189076 0.232565 -0.0878306 -0.0675098 -0.160768 -0.203159 -0.0591734 0.178571 0.0497159 -0.0917236 0.330579 0.212569 0.203366 0.21866 0.474537 0.336538 0.180448 0.205999 -0.466198 0.245647 -0.128348 -0.0366748 0.145349 0.30506 0.469891 0.63058 0.357143 -0.0722752 -0.300325 -0.0182039 0.2199 0.199154 0.453125 0.3125 0.161969 0.228134 0.68038 -0.0116048 0.529891 -0.086858 0.188874 0.407609 0.659509 0.789234 0.966981 1.17188 0.576923 0.11489 0.799632 1.06771 0.42444 0.735887 0.150118 0.243468 -0.0318287 0.117188
internal_count=10438 9887 3383 2380 2201 6504 6138 1003 926 6031 315 264 586 121 2164 2139 2078 270 221 1808 1696 551 201 560 409 215 168 137 112 70 5716 231 103 1657 1566 200 170 1366 989 79 377 46 331 910 230 163 137 106 80 91 680 68 48 134 62 637 421 216 160
shrinkage=0.01


Tree=4
num_leaves=60
num_cat=0
split_feature=79 122 122 122 84 83 70 122 60 68 84 70 122 112 48 83 122 21 43 122 122 125 80 104 23 101 70 7 23 71 7 0 107 125 68 1 60 70 70 122 126 70 111 75 22 104 125 122 60 122 93 122 2 14 122 7 60 126 122
split_gain=326.617 77.3742 68.8296 65.2123 40.823 32.3429 22.0364 16.0118 14.9915 14.6088 14.5964 17.3063 13.7489 11.5717 11.5237 9.84701 9.37801 10.8186 8.10086 10.4272 7.49787 7.25157 9.7462 7.23385 7.07857 10.0778 6.72843 6.3787 6.05304 5.79475 5.64408 5.49551 5.41198 5.29212 5.15032 4.53171 4.4988 4.33348 4.25347 4.08178 5.34481 6.21383 4.25332 4.03095 5.48614 4.21437 3.87705 6.2364 3.81333 5.2381 3.81251 3.79934 3.63119 3.62491 3.90181 3.30222 3.17084 2.96141 3.58608
threshold=1.0000000180025095e-35 68.500000000000014 1.0000000180025095e-35 65.500000000000014 1.0000000180025095e-35 1.0000000180025095e-35 1.5000000000000002 35.500000000000007 9.5000000000000018 9.5000000000000018 1.0000000180025095e-35 1.0000000180025095e-35 43.500000000000007 1.0000000180025095e-35 1.0000000180025095e-35 1.0000000180025095e-35 107.50000000000001 4.5000000000000009 1.0000000180025095e-35 39.500000000000007 115.50000000000001 9.5000000000000018 3.5000000000000004 2.5000000000000004 1.5000000000000002 1.0000000180025095e-35 4.5000000000000009 6.5000000000000009 4.5000000000000009 1.5000000000000002 10.500000000000002 1.0000000180025095e-35 22.500000000000004 37.500000000000007 7.5000000000000009 1.5000000000000002 5.5000000000000009 5.5000000000000009 2.5000000000000004 51.500000000000007 39.500000000000007 1.5000000000000002 4.5000000000000009 1.0000000180025095e-35 1.5000000000000002 1.0000000180025095e-35 13.500000000000002 28.500000000000004 9.5000000000000018 130.50000000000003 1.0000000180025095e-35 75.500000000000014 2.5000000000000004 2.5000000000000004 83.500000000000014 9.5000000000000018 16.500000000000004 11.500000000000002 29.500000000000004
decision_type=2 2 2 2 2 2 2 2 2 2 2 2 2 2 2 2 2 2 2 2 2 2 2 2 2 2 2 2 2 2 2 2 2 2 2 2 2 2 2 2 2 2 2 2 2 2 2 2 2 2 2 2 2 2 2 2 2 2 2
left_child=1 2 -1 6 8 7 12 -4 14 48 11 33 46 18 23 -11 31 26 19 57 30 22 50 29 25 34 52 -14 -22 -3 -13 35 -12 53 -21 37 -8 -10 -24 -23 41 43 -43 44 45 -41 47 -2 -6 -50 -9 -31 -18 54 -5 -29 -32 58 -7
right_child=3 4 5 10 9 13 36 21 16 15 32 20 27 -15 -16 -17 17 -19 -20 24 28 39 38 -25 -26 -27 -28 55 -30 51 56 -33 -34 -35 -36 -37 -38 -39 -40 40 -42 42 -44 -45 -46 -47 -48 -49 49 -51 -52 -53 -54 -55 -56 -57 -58 -59 -60
leaf_value=-0.00064287087407354209 -0.0012500000465661288 0.014130435309008416 -0.0052092711211531783 0.022023810344260372 0.023842593480798393 -0.0023919753977500015 0.0036184211874282701 -0.0032866380534712896 0.00096153849735856141 0.0015625000582076619 0.015625000582076623 0.010576923470944173 0.018303572110432608 0.014062500523868959 -0.0037500001396983894 0.015885417258444567 0.013839286229839287 -0.0037162163546560619 -0.0053171643771842839 0.013146552213885157 0.018243243922857026 -0.004122541757207508 0.012500000465661298 0.016477273341098983 -0.0009308510985066924 -0.0025000000931322598 0.00044642858805933209 0.0049107144686526506 0.0065340911525047698 0.0093750003492459686 -0.0034090910360894456 -0.005448718151698514 0.022893259279806646 0.010119047996011528 0.0032608696866942518 0.0069711541058495698 -0.0038149352070524739 -0.0050925927823064548 0.0015625000582076621 0.0030092593713629025 -0.0058593752182787328 -0.0038306453039929785 0.0041666668218870995 -0.0037500001396983894 -0.0010416667054717749 0.012980769714340579 -0.0032738096457684352 0.010243055937139119 0.0093750003492459738 0.021875000814907265 0.0032986112339939539 -0 0.0046875001746229869 0.023161765568725349 0.011778846592642375 0.013750000512227427 0.0059782610922727939 -0.0055397729336453486 0.0039244187508471516
leaf_count=5211 25 23 2222 21 27 81 38 116 117 40 50 39 42 20 25 24 42 37 67 58 37 661 25 33 47 25 28 28 22 22 22 78 89 21 23 26 77 54 20 27 80 155 24 25 36 26 21 36 22 20 36 35 20 51 26 25 23 44 43
internal_value=0 -0.153925 -0.196828 1.10209 0.424406 -0.375712 0.46661 -0.431328 0.208333 1.30169 1.56484 1.31918 0.858051 0.0949755 0.711051 0.693359 0.0357587 0.433071 0.027384 0.144081 0.90472 -0.269598 0.0412437 0.951327 0.477941 0.731132 0.763889 1.31579 1.38771 0.664063 0.565476 -0.147727 2.02788 1.81723 1.03395 0.00951777 -0.13587 -0.0950292 0.763889 -0.32882 -0.180965 -0.0703925 -0.275838 0.252193 0.428371 0.790094 0.327744 0.553279 1.86594 1.53274 -0.172697 0.361842 1.08871 1.9898 1.63564 0.908019 0.138889 -0.15997 -0.0201613
internal_count=10438 9745 9072 693 673 3861 292 3453 540 133 401 262 177 408 138 64 402 127 388 321 143 1231 197 113 153 106 90 95 59 80 84 275 139 119 81 197 115 171 45 1034 373 293 179 114 89 53 82 61 69 42 152 57 62 98 47 53 45 168 124
shrinkage=0.01


Tree=5
num_leaves=60
num_cat=0
split_feature=0 4 33 126 122 21 126 17 5 33 42 19 70 122 0 0 107 126 6 9 72 125 15 126 126 122 57 7 122 38 23 54 122 17 126 33 54 111 124 70 59 122 122 122 60 126 21 21 111 125 76 122 33 111 111 124 54 126 60
split_gain=344.545 93.6327 73.7216 42.7579 27.3621 25.3349 18.36 14.8598 14.6103 13.7867 13.1423 12.3312 10.7996 10.5525 12.9471 9.47374 8.18389 12.5645 8.00705 7.64633 7.09456 6.97679 6.26523 6.19829 6.11648 19.4993 5.08262 7.17444 4.96736 4.81537 7.0681 7.04201 5.26405 4.7753 9.04573 9.26332 7.06553 4.5904 4.55719 4.40391 4.34879 4.0478 3.92806 3.65089 3.24659 2.9819 2.92038 2.8375 2.64907 7.28474 2.58157 2.54956 2.45761 2.42353 2.36543 2.30122 2.28078 2.27565 2.1735
threshold=1.5000000000000002 1.0000000180025095e-35 4.5000000000000009 8.5000000000000018 51.500000000000007 1.0000000180025095e-35 74.500000000000014 1.0000000180025095e-35 1.0000000180025095e-35 9.5000000000000018 1.0000000180025095e-35 1.0000000180025095e-35 3.5000000000000004 33.500000000000007 1.0000000180025095e-35 3.5000000000000004 2.5000000000000004 11.500000000000002 1.0000000180025095e-35 1.0000000180025095e-35 1.0000000180025095e-35 12.500000000000002 1.0000000180025095e-35 15.500000000000002 26.500000000000004 47.500000000000007 1.0000000180025095e-35 14.500000000000002 15.500000000000002 1.0000000180025095e-35 2.5000000000000004 5.5000000000000009 71.500000000000014 1.0000000180025095e-35 3.5000000000000004 1.5000000000000002 1.0000000180025095e-35 2.5000000000000004 1.0000000180025095e-35 1.5000000000000002 1.5000000000000002 63.500000000000007 40.500000000000007 36.500000000000007 14.500000000000002 27.500000000000004 1.0000000180025095e-35 1.0000000180025095e-35 1.5000000000000002 22.500000000000004 1.0000000180025095e-35 15.500000000000002 1.0000000180025095e-35 1.0000000180025095e-35 1.0000000180025095e-35 1.0000000180025095e-35 3.5000000000000004 6.5000000000000009 3.5000000000000004
decision_type=2 2 2 2 2 2 2 2 2 2 2 2 2 2 2 2 2 2 2 2 2 2 2 2 2 2 2 2 2 2 2 2 2 2 2 2 2 2 2 2 2 2 2 2 2 2 2 2 2 2 2 2 2 2 2 2 2 2 2
left_child=2 4 3 20 8 16 37 12 15 11 13 19 22 14 21 18 17 51 40 26 33 23 -5 38 -18 -26 27 42 -24 -11 31 32 -31 34 46 50 58 -6 39 54 53 -27 48 -17 -3 -10 55 -15 -7 -50 -36 -4 -35 -2 -9 -1 -54 -38 -37
right_child=1 44 5 7 6 9 -8 10 45 29 -12 -13 -14 47 -16 43 24 -19 -20 -21 -22 -23 28 -25 25 41 -28 -29 -30 30 -32 -33 -34 52 35 36 57 -39 -40 -41 -42 -43 -44 -45 -46 -47 -48 -49 49 -51 -52 -53 56 -55 -56 -57 -58 -59 -60
leaf_value=-0.0010663177852071391 0.0099651398065820542 0.023892990214758773 0.0011938928321070178 0.01180443906639487 0.0041030489864115303 -0.00070468305250313281 0.016281266225546147 0.0045077900692325297 0.014806792499130318 -0.0045070320787480777 0.012919694082105231 0.01067725429493342 0.019166710707958636 -0.0050170494573159629 0.014761359324419073 0.017980171067624975 -0.0055695876435508255 0.010572388326201918 0.012347250177219684 0.0079521522979259761 -0.005437527473123995 -0.0028303495837088892 0.0093062517594417592 0.010643749799710658 0.010932276719954137 0.00079430604502268485 -0.0036944470108849288 0.0088164085845559466 -0.0015229533562510344 0.0056636814415811235 -0.0041994292212759196 0.010544168579058599 -0.0062448385510644787 0.0026868450785279647 0.0031197299846014021 0.010028700563696081 -0.0035804543041932342 -0.0033868922063941343 -0.0048938314734458116 0.010713952367078696 -0.0029207175888003251 -0.0053468172658471943 -0.0054790242282099881 0.0091749168196158352 0.016939480350062607 0.023451988779040173 0.004534495781251373 0.0015668881968176637 0.011383860699835055 -0.0019349191553575075 0.010833144305651896 -0.0062440938568932179 -0.004103752438963949 0.0021074750438502326 -0.003278278309414987 -0.0062456348125257645 0.0010413779820583958 0.0015630294296803803 0.0025012710614660443
leaf_count=5353 23 154 21 43 36 141 22 29 22 415 34 35 28 76 28 37 1911 26 40 33 117 64 22 35 29 40 135 29 33 21 92 26 26 21 20 23 82 87 23 22 28 210 41 24 24 28 29 28 23 29 42 46 263 26 21 27 30 40 25
internal_value=0 1.25012 -0.180044 -0.0713401 0.74699 -0.394688 0.147189 0.432434 1.1267 -0.166708 0.249547 0.0597049 0.95344 0.140327 0.357593 0.889909 -0.499309 0.0146446 0.595757 -0.0223943 -0.111807 0.195033 0.676739 0.429775 -0.52118 -0.276389 -0.0902702 0.0528352 0.281587 -0.348954 -0.0932964 0.317302 -0.0918532 -0.103347 -0.0915368 0.250214 0.0367913 -0.119007 0.195525 0.414008 0.262885 -0.436255 -0.0500859 1.45129 2.29599 1.9654 -0.106211 -0.324524 0.0553805 0.396339 0.83468 -0.390879 -0.315691 0.579484 0.123864 -0.109228 -0.35761 -0.189368 0.611101
internal_count=10438 551 9887 6558 373 3329 145 486 228 1046 360 466 126 326 222 178 2283 93 117 431 6072 194 98 130 2190 279 398 263 55 580 165 73 47 5955 5641 232 170 123 95 72 77 250 234 61 178 50 5409 104 193 52 62 67 314 49 50 5380 293 122 48
shrinkage=0.01


Tree=6
num_leaves=60
num_cat=0
split_feature=25 26 122 80 21 21 21 122 23 22 125 57 125 123 25 107 40 33 44 33 43 126 15 29 122 26 60 2 93 57 33 22 126 125 107 22 24 80 123 3 60 17 126 21 125 107 33 21 122 67 48 75 111 107 114 60 3 80 123
split_gain=238.401 68.1214 60.5634 34.269 28.6628 27.4124 26.4851 20.4022 20.1904 10.4348 8.31355 6.96237 6.95921 6.72127 6.51877 7.12855 6.38528 6.37989 6.82928 6.33794 7.65909 6.22875 6.21448 5.45696 5.21733 5.21573 5.13501 5.75447 4.92729 4.46896 4.31831 4.02087 4.09035 4.84187 3.65307 3.51706 4.09015 3.48441 3.29858 3.19018 3.15696 5.53092 2.80301 2.77743 2.63106 2.55431 2.41809 2.32697 2.32277 2.23822 2.04424 2.44319 2.22451 1.94072 1.92401 1.85496 1.84445 1.77535 1.75615
threshold=1.0000000180025095e-35 1.5000000000000002 22.500000000000004 2.5000000000000004 2.5000000000000004 2.5000000000000004 1.0000000180025095e-35 61.500000000000007 1.5000000000000002 1.5000000000000002 16.500000000000004 1.0000000180025095e-35 23.500000000000004 20.500000000000004 3.5000000000000004 7.5000000000000009 1.0000000180025095e-35 6.5000000000000009 1.0000000180025095e-35 3.5000000000000004 1.0000000180025095e-35 7.5000000000000009 1.0000000180025095e-35 1.0000000180025095e-35 88.500000000000014 1.0000000180025095e-35 5.5000000000000009 1.5000000000000002 1.5000000000000002 1.0000000180025095e-35 24.500000000000004 1.5000000000000002 10.500000000000002 4.5000000000000009 10.500000000000002 1.0000000180025095e-35 1.0000000180025095e-35 2.5000000000000004 11.500000000000002 1.5000000000000002 2.5000000000000004 1.0000000180025095e-35 9.5000000000000018 2.5000000000000004 30.500000000000004 3.5000000000000004 2.5000000000000004 7.5000000000000009 17.500000000000004 1.0000000180025095e-35 1.0000000180025095e-35 1.0000000180025095e-35 1.5000000000000002 6.5000000000000009 2.5000000000000004 9.5000000000000018 1.5000000000000002 1.5000000000000002 8.5000000000000018
decision_type=2 2 2 2 2 2 2 2 2 2 2 2 2 2 2 2 2 2 2 2 2 2 2 2 2 2 2 2 2 2 2 2 2 2 2 2 2 2 2 2 2 2 2 2 2 2 2 2 2 2 2 2 2 2 2 2 2 2 2
left_child=1 2 6 8 24 11 19 26 12 -6 31 23 13 40 15 42 43 18 57 20 50 -22 -9 -4 29 47 27 44 -11 55 -24 32 33 -8 39 36 -25 -27 -35 53 -2 -42 -10 -17 -3 -40 -23 -19 -34 -15 51 52 -1 -28 -14 -5 58 -7 -21
right_child=3 7 5 4 9 17 10 22 14 28 -12 -13 54 49 -16 16 -18 25 -20 56 21 46 30 35 -26 37 34 -29 -30 -31 -32 -33 48 38 -36 -37 -38 -39 45 -41 41 -43 -44 -45 -46 -47 -48 -49 -50 -51 -52 -53 -54 -55 -56 -57 -58 -59 -60
leaf_value=-0.0017697432486608225 0.014425343469995923 0.013212328768135441 -0.0044771572953068032 -0.0062528839136625023 0.0038242516404578502 0.003691120692766104 -0.0027840174207013897 -0.0062410626927810707 0.014298999334489412 0.020733845096087163 0.01168042913572883 -0.0058095236089860018 0.018530903619969744 -0.0025056070316442853 0.024527376903741415 0.0032095911798324874 0.019088981475703058 -0.0033236141724671225 0.010583243293704834 -0.0014769460989515926 0.011155015839687301 -0.0036540195230379061 0.0081629741863881687 -0.0048183324400808535 -0.0056321944148618706 0.0086872994560404544 0.0059278685008322517 0.0055582220205700594 0.010424754344086958 0.0056045547219855905 -0.0021652594408636794 0.00999520319230017 0.0015482271716832498 0.0089837892297859167 0.013830814833612134 0.0036286657816829338 0.0041332860593155203 -0.00083261722009760454 -0.0019987468420891914 0.010687716756533405 -4.4689444854104351e-05 0.01262797218051505 0.021210190874092857 0.011775385616877517 0.020774335953690465 0.0065134752252398011 0.0046607897070421195 0.0020669881655053951 -0.0052400207905129604 0.0049685555932023513 -0.0062464428730622107 0.0020180907990803381 -0.0062454181069420221 -0.0015878705043919311 0.010805786120888507 0.0011710447475771174 0.00054179144652257739 -0.003410064026937225 -0.0052403525221968363
leaf_count=5521 27 35 1172 21 34 22 27 34 27 32 38 1745 20 25 29 23 22 150 35 46 25 24 28 66 51 25 23 21 26 42 23 21 32 47 20 41 21 23 22 22 20 23 55 24 24 22 20 30 31 25 32 53 35 20 20 21 23 22 250
internal_value=0 -0.240879 -0.264652 0.934335 0.40294 -0.456858 -0.162105 0.667929 1.28748 1.15993 0.412868 -0.507812 0.831138 0.618514 1.69078 1.54388 1.12627 0.0463875 0.478432 -0.185094 -0.171548 0.412966 -0.0366205 -0.40975 -0.116415 -0.103852 1.02821 1.34803 1.61233 0.153635 0.352355 0.269959 0.184875 0.378732 0.726299 -0.0631618 -0.264794 0.412891 0.573443 0.522981 0.970473 0.673834 1.8935 0.759569 1.62931 0.225693 0.0126082 -0.242255 -0.178852 0.123409 -0.178728 -0.176185 -0.179791 0.243176 1.46708 -0.253962 -0.427939 0.0140483 -0.465522
internal_count=10438 9871 9621 567 227 3352 6269 250 340 92 240 3045 160 120 180 151 69 307 79 6029 5710 69 85 1300 135 228 165 80 58 84 51 202 181 118 85 128 87 48 91 65 70 43 82 47 59 44 44 180 63 50 5641 5609 5556 43 40 42 319 44 296
shrinkage=0.01


Tree=7
num_leaves=60
num_cat=0
split_feature=48 126 125 115 5 81 73 83 21 60 7 40 80 70 126 125 104 122 97 125 60 81 96 70 111 123 54 68 70 81 38 122 7 23 33 59 122 80 21 110 123 101 122 122 125 111 70 114 9 49 100 126 59 122 125 113 114 36 123
split_gain=192.783 151.533 57.9058 39.0254 32.9127 28.8454 20.4455 16.0733 14.8512 21.8081 19.0406 12.7372 12.6024 13.1331 11.4758 10.6512 10.3872 10.3047 9.3335 9.4546 9.15853 9.60374 7.81779 7.2778 7.20869 7.07206 7.06932 10.1074 6.93085 6.61297 6.3809 7.26743 6.2504 5.9855 5.82883 5.71522 5.41765 5.84928 6.16512 5.3839 5.33474 5.1792 5.17911 5.0953 12.7983 4.76405 4.71819 5.00143 4.63556 4.98194 5.26108 4.54558 7.44045 5.7063 4.54391 4.50193 4.47343 4.46829 4.43783
threshold=1.0000000180025095e-35 15.500000000000002 17.500000000000004 1.0000000180025095e-35 1.0000000180025095e-35 1.0000000180025095e-35 1.0000000180025095e-35 1.0000000180025095e-35 1.0000000180025095e-35 1.0000000180025095e-35 1.5000000000000002 1.0000000180025095e-35 9.5000000000000018 1.5000000000000002 25.500000000000004 5.5000000000000009 2.5000000000000004 48.500000000000007 4.5000000000000009 12.500000000000002 4.5000000000000009 1.0000000180025095e-35 1.0000000180025095e-35 1.5000000000000002 1.0000000180025095e-35 5.5000000000000009 6.5000000000000009 13.500000000000002 1.5000000000000002 1.0000000180025095e-35 1.0000000180025095e-35 83.500000000000014 1.0000000180025095e-35 1.0000000180025095e-35 9.5000000000000018 1.5000000000000002 20.500000000000004 1.5000000000000002 1.5000000000000002 4.5000000000000009 28.500000000000004 1.0000000180025095e-35 39.500000000000007 1.0000000180025095e-35 5.5000000000000009 1.5000000000000002 1.5000000000000002 3.5000000000000004 1.0000000180025095e-35 1.0000000180025095e-35 1.0000000180025095e-35 10.500000000000002 1.5000000000000002 23.500000000000004 10.500000000000002 4.5000000000000009 1.5000000000000002 2.5000000000000004 24.500000000000004
decision_type=2 2 2 2 2 2 2 2 2 2 2 2 2 2 2 2 2 2 2 2 2 2 2 2 2 2 2 2 2 2 2 2 2 2 2 2 2 2 2 2 2 2 2 2 2 2 2 2 2 2 2 2 2 2 2 2 2 2 2
left_child=1 3 17 5 23 6 7 8 9 32 25 16 13 -4 20 -8 22 29 -17 58 -3 30 33 45 56 -11 27 -15 -7 41 31 36 43 40 -19 -21 -22 38 -38 -39 42 48 51 -1 -45 -5 -41 -48 49 50 -2 52 53 -12 -51 -26 -25 -35 -20
right_child=2 14 12 4 -6 28 15 -9 -10 10 11 -13 -14 26 -16 18 -18 34 19 35 21 -23 -24 24 55 -27 -28 -29 -30 -31 -32 -33 -34 57 -36 -37 37 39 -40 46 -42 -43 -44 44 -46 -47 47 -49 -50 54 -52 -53 -54 -55 -56 -57 -58 -59 -60
leaf_value=0.003997358332326206 0.013953382917232733 -0.0038345942864059352 -0.0018685491788424666 0.010761982161902304 0.00038900973280866949 -0.0035287490724897658 0.018858949069626131 -0.0017239873321426447 0.0010004755349003272 0.020853745352242367 0.011009914851031912 0.0002212591233536701 -0.0053431509283419342 0.0083488719627609308 -0.0025247238040487651 -0.00020661254828667667 -2.1854129545628627e-05 0.0054325638360873674 0.0074815259350772033 -0.0031346653542873378 -0.0024364630804670369 -0.0029063581936917917 -0.0010711967584623222 0.022385746405360913 0.010575734868576957 0.011039955555629571 0.0025389035732006093 0.021760577782094517 0.0023675446202644046 0.0084031028063981748 -0.0025968731997909867 -0.0030013845767508148 -0.004960197539380911 0.0051554051452313114 0.013168876943239084 0.0080300172209319398 0.0093128974680288037 0.010742523868137588 0.0020951058877290941 -0.00062828054265246891 0.016774863440775365 0.018946083892539385 0.0008397727987090025 0.013777848376247927 -0.00088995312988277052 0.0023152242325306751 0.0083702435273997604 -0.00088016339811781887 0.02155056179430212 0.021476183979611992 0.0049694889289910171 0.0037991084737413884 0.017383160439717424 0.0036337981488364026 0.012266367739222477 0.017966692795277496 0.012283777097993935 0.011880120746011909 0.01598623303734471
leaf_count=5211 240 143 50 73 94 184 32 145 417 32 126 101 35 102 1018 36 60 53 27 20 41 150 30 42 127 79 46 21 94 38 77 58 24 210 70 50 108 22 56 122 31 136 22 51 29 29 49 29 30 49 22 34 42 44 25 32 20 36 64
internal_value=0 0.325583 1.1709 0.435576 0.959693 0.405253 0.42751 0.409812 0.422602 0.444402 0.707215 0.6044 0.453602 0.610054 -0.125472 0.945039 0.696884 1.44369 0.791664 0.972705 0.025431 0.107283 0.769682 1.22585 1.40511 1.38737 0.844182 1.06431 -0.153077 1.54824 0.213135 0.288069 0.402458 0.817915 0.983992 0.484905 0.367545 0.432268 0.685004 0.245383 0.985462 1.60172 0.905312 0.406536 0.847751 0.836153 0.154149 0.493197 1.49284 1.43371 1.3199 0.978467 1.07442 0.910119 1.83646 1.20626 1.91313 0.614032 1.34616
internal_count=10438 9521 917 7648 417 7231 6953 6724 6579 6162 847 736 254 219 1873 229 635 663 197 161 855 712 575 323 221 111 169 123 278 540 562 485 5315 545 123 70 427 386 164 222 299 502 268 5291 80 102 200 78 366 336 262 246 212 170 74 159 62 246 91
shrinkage=0.01


Tree=8
num_leaves=60
num_cat=0
split_feature=0 52 68 25 7 25 122 53 40 122 7 82 124 26 68 111 87 33 70 56 88 124 110 8 31 122 32 81 123 123 33 93 125 111 113 33 100 122 68 59 80 76 115 33 68 15 107 124 72 59 23 110 93 70 93 62 80 71 70
split_gain=31.6852 21.5917 21.3889 12.7568 11.608 11.5243 9.75404 9.81889 9.04175 6.63659 7.02973 6.96477 7.3206 4.53309 4.48063 4.39601 4.27348 3.97664 5.38 4.2637 4.02628 5.61777 5.35759 4.03421 3.85813 4.21993 3.89074 3.79147 3.7854 5.72832 5.36222 3.78066 3.63637 3.56142 3.45966 5.1098 5.44983 4.29316 3.73732 3.53513 3.39406 3.28347 6.22562 4.23724 3.38431 3.59994 3.5176 3.27421 3.23915 6.09605 3.08053 3.06094 3.35093 3.03088 3.0148 3.00043 2.98413 3.22034 2.96886
threshold=1.5000000000000002 1.5000000000000002 5.5000000000000009 1.0000000180025095e-35 13.500000000000002 1.0000000180025095e-35 129.50000000000003 3.5000000000000004 1.0000000180025095e-35 23.500000000000004 11.500000000000002 1.0000000180025095e-35 1.5000000000000002 2.5000000000000004 10.500000000000002 3.5000000000000004 1.0000000180025095e-35 20.500000000000004 3.5000000000000004 2.5000000000000004 1.5000000000000002 2.5000000000000004 10.500000000000002 1.0000000180025095e-35 1.5000000000000002 38.500000000000007 1.0000000180025095e-35 1.5000000000000002 34.500000000000007 25.500000000000004 5.5000000000000009 1.5000000000000002 12.500000000000002 4.5000000000000009 2.5000000000000004 5.5000000000000009 1.0000000180025095e-35 27.500000000000004 1.5000000000000002 1.0000000180025095e-35 3.5000000000000004 1.5000000000000002 1.0000000180025095e-35 5.5000000000000009 3.5000000000000004 1.0000000180025095e-35 3.5000000000000004 1.0000000180025095e-35 1.0000000180025095e-35 2.5000000000000004 3.5000000000000004 6.5000000000000009 1.0000000180025095e-35 1.5000000000000002 1.0000000180025095e-35 1.0000000180025095e-35 1.5000000000000002 3.5000000000000004 2.5000000000000004
decision_type=2 2 2 2 2 2 2 2 2 2 2 2 2 2 2 2 2 2 2 2 2 2 2 2 2 2 2 2 2 2 2 2 2 2 2 2 2 2 2 2 2 2 2 2 2 2 2 2 2 2 2 2 2 2 2 2 2 2 2
left_child=1 2 3 8 -3 6 7 17 9 32 11 12 13 27 -7 58 31 19 47 20 21 22 23 24 25 26 28 33 29 54 -30 -16 41 34 35 37 48 53 -36 -39 -17 44 43 -43 -1 46 -46 -19 49 -37 -8 -10 -53 -11 -4 -5 -27 -58 -2
right_child=15 4 5 55 -6 14 50 -9 51 10 -12 -13 -14 -15 16 40 -18 18 -20 -21 -22 -23 -24 -25 -26 56 -28 -29 30 -31 -32 -33 -34 -35 38 36 -38 39 -40 -41 -42 42 -44 -45 45 -47 -48 -49 -50 -51 -52 52 -54 -55 -56 -57 57 -59 -60
leaf_value=-0.00065441911307511811 -0.0057880066604008287 0.016867470197767988 0.0024958087519408325 -0.0053054311849238854 -2.0311074714512733e-06 -0.0041343850534002712 -0.0048548691526471314 0.011808019656587643 -0.0045514004183463026 0.0093435626268425741 -0.002823801280257708 -0.0040076525787854506 -0.0026102253656214896 -0.0049891999647322903 0.0082523534595648814 0.0032358098857340951 -0.0050371629098194103 0.0054391498855066904 0.010573405832580471 0.0093260560873273234 0.0025206573389093272 -0.0022242102981650004 -0.00067932765532455783 -0.0048902549939439143 -0.0047578555642385865 0.0093399986957633813 -0.0049397836403648069 -0.0015682115339427278 0.00021325327969454809 -0.0015522245991122618 0.010092969184477911 -0.00085555704466363711 -0.0039475506151393381 0.0084725096393316688 0.0080352022596055124 0.01122420126425187 -0.001627255098005125 0.0031043894738774797 0.00076059752500088685 -0.0047976250248556104 -0.0035071205827804266 -0.004498154056862688 0.0053223416547658669 0.003677698641647856 -0.0040134307449744173 0.0093855156039390625 0.0039356175092190495 -0.0034136628797264844 0.0031143654319767443 0.0028830747632808619 0.00085482816731117725 0.0019691831145303381 -0.0043350481056314456 0.00053881689340767804 0.0088195539992392755 0.00039538984075486244 0.0058157899856710318 -0.0010374093019236352 0.00088877984960770637
leaf_count=5499 416 35 125 233 20 163 90 31 240 26 146 70 103 25 28 33 26 32 37 22 708 163 269 23 21 44 24 60 29 113 42 29 109 36 24 82 27 30 267 43 80 197 27 22 28 20 46 22 50 41 44 57 49 23 29 33 75 30 22
internal_value=0 -0.028412 -0.0345998 -0.0791406 1.07471 0.118063 0.162984 0.196485 -0.065379 -0.0515949 0.0777044 0.135601 0.180302 0.242164 -0.243035 -0.46478 0.0914818 0.17955 0.539216 0.160456 0.150414 0.0774459 0.136733 0.235953 0.26727 0.297754 0.194685 0.268173 0.243437 0.146974 0.606035 0.36214 -0.0745136 0.307439 0.275718 0.401869 0.575598 0.116849 0.136111 -0.154736 -0.153743 -0.0685446 -0.268565 -0.367454 -0.0597545 0.272882 0.0930496 0.183506 0.690726 0.844696 -0.297812 -0.344492 -0.0943692 0.521347 0.368721 -0.459819 0.547989 0.386028 -0.545248
internal_count=10438 9887 9832 7613 55 2219 1973 1839 7347 7001 1053 907 837 734 246 551 83 1808 91 1717 1695 987 824 555 532 511 362 709 338 267 71 57 5948 649 613 322 200 122 291 73 113 5839 246 219 5593 94 74 54 173 123 134 346 106 49 154 266 149 105 438
shrinkage=0.01


Tree=9
num_leaves=60
num_cat=0
split_feature=79 86 122 122 122 84 70 112 122 122 84 70 122 43 89 83 81 49 71 36 122 54 80 80 126 70 67 122 23 126 110 23 7 67 122 70 114 126 15 81 81 7 7 71 81 24 81 83 122 126 96 70 33 80 79 80 49 100 66
split_gain=320.828 132.078 63.0624 53.6076 57.882 23.0168 21.6085 20.8674 19.501 14.3342 13.9568 16.6476 13.3763 11.2191 9.82059 8.94717 8.73469 7.77243 7.65148 7.62064 7.27673 7.06035 13.9089 6.3731 6.22391 6.66004 6.22377 6.19972 5.82111 5.77026 5.67132 5.58918 5.51581 5.21895 5.10018 4.42736 4.39764 6.37838 5.47283 4.80831 4.30832 4.20124 4.16404 4.11152 4.09827 6.93824 3.26474 3.13403 3.04711 4.50593 2.62176 2.57488 2.89796 2.37491 2.20951 2.16863 2.69581 2.84264 2.12224
threshold=1.0000000180025095e-35 1.0000000180025095e-35 65.500000000000014 1.0000000180025095e-35 63.500000000000007 1.0000000180025095e-35 1.5000000000000002 1.0000000180025095e-35 43.500000000000007 29.500000000000004 1.0000000180025095e-35 1.0000000180025095e-35 43.500000000000007 1.0000000180025095e-35 1.0000000180025095e-35 1.0000000180025095e-35 1.0000000180025095e-35 1.0000000180025095e-35 3.5000000000000004 1.5000000000000002 115.50000000000001 3.5000000000000004 3.5000000000000004 4.5000000000000009 28.500000000000004 2.5000000000000004 1.0000000180025095e-35 61.500000000000007 4.5000000000000009 13.500000000000002 19.500000000000004 1.5000000000000002 10.500000000000002 1.5000000000000002 48.500000000000007 2.5000000000000004 8.5000000000000018 48.500000000000007 1.5000000000000002 1.0000000180025095e-35 1.0000000180025095e-35 7.5000000000000009 11.500000000000002 1.0000000180025095e-35 1.0000000180025095e-35 1.0000000180025095e-35 1.5000000000000002 1.0000000180025095e-35 28.500000000000004 12.500000000000002 1.0000000180025095e-35 2.5000000000000004 14.500000000000002 1.5000000000000002 1.5000000000000002 1.5000000000000002 1.0000000180025095e-35 1.0000000180025095e-35 1.0000000180025095e-35
decision_type=2 2 2 2 2 2 2 2 2 2 2 2 2 2 2 2 2 2 2 2 2 2 2 2 2 2 2 2 2 2 2 2 2 2 2 2 2 2 2 2 2 2 2 2 2 2 2 2 2 2 2 2 2 2 2 2 2 2 2
left_child=1 3 6 -1 7 13 12 9 -3 40 11 44 48 14 17 23 19 36 47 -14 32 27 -23 46 25 31 29 -10 -22 -25 -12 53 -13 -20 -31 -24 37 38 39 43 -5 -8 -40 -6 45 -4 50 -7 -2 -50 55 52 -19 -17 -46 -11 57 -57 -45
right_child=2 8 10 4 5 18 41 -9 21 15 30 20 16 -15 -16 24 -18 51 33 -21 28 22 35 26 -26 -27 -28 -29 -30 34 -32 -33 -34 -35 -36 -37 -38 -39 42 -41 -42 -43 -44 58 54 -47 -48 -49 49 -51 -52 -53 -54 -55 -56 56 -58 -59 -60
leaf_value=-0.00063916480614754727 -0.001618849937100555 0.0028492228746508298 0.018899266060254216 -0.0055978242945110357 0.0071124930279144348 0.010302754240590763 0.0021108097510534052 0.0097871163400765314 0.012205607009362129 -0.0050209355588186899 0.014571660367121786 0.010436170255682772 0.015535089121677288 -0.0046823004075991336 0.01152008986484104 0.0037608093096645799 0.019641228844360207 0.0037239521673652189 0.010791183420608754 0.0027403305019071972 0.017909210302750837 -0.0015787904650150536 0.019409843825358177 0.011601471232303847 -0.0062450541834636695 -0.002294839088039216 -0.0034343931705836266 0.021928377182803757 0.0064692044341849077 -0.0062450941219008354 0.022249301760258456 -0.0010384850136217496 0.0013743846884836494 -0.0012853110829979027 0.005966343010369273 0.0093161998285990755 0.0083393190133434457 -0.0054053766587446993 0.0015446110875019566 0.0070523026077608589 -0.0015618647454427809 -0.0046517046922233659 0.012018708155473928 -0.0025782002514792234 0.016865489414970975 0.0061053262050137225 0.0015789008292400734 0.019051284109257622 0.0097410085568862773 -0.00057317015237145239 -0.0013001394729867575 -0.0062472625457292274 -0.0043018254453704467 0.010573936291848522 0.023707410333062486 -0.0032799675307660344 -0.005617304064798375 0.002043908883479449 0.0024102180895807031
leaf_count=5211 27 55 38 1753 21 30 56 33 32 692 43 39 27 120 28 28 37 25 20 31 37 20 35 21 39 79 78 56 22 20 96 36 45 25 23 22 32 37 20 35 87 59 29 102 24 20 32 22 33 22 95 51 32 37 37 412 150 34 36
internal_value=0 -0.153166 1.08727 -0.184555 -0.330528 0.148497 0.462369 -0.41825 1.19769 -0.43108 1.53886 1.29938 0.848053 0.0123167 0.140631 -0.317712 1.29678 0.0730137 0.941242 0.870029 0.89352 1.49973 1.10965 -0.364893 0.0166982 0.155138 -0.00764332 1.84028 1.36655 0.40082 1.98812 0.455424 0.559511 0.408986 0.0296351 1.55261 0.214269 0.143327 0.247236 0.114035 -0.54068 -0.135279 0.774524 -0.0167101 1.78413 1.44951 -0.40079 1.40118 0.324858 0.562842 -0.41373 -0.335768 -0.0779885 0.764038 2.10174 -0.434667 -0.356418 -0.287402 -0.127583
internal_count=10438 9745 693 9525 4314 665 292 3649 220 3616 401 262 177 568 448 1776 95 420 97 58 143 165 77 1557 219 180 142 88 59 64 139 101 84 45 43 57 312 280 243 194 1840 115 49 159 119 58 1415 52 82 55 1383 108 57 65 61 1288 596 446 138
shrinkage=0.01


Tree=10
num_leaves=60
num_cat=0
split_feature=40 12 33 122 122 66 60 8 43 1 24 23 49 2 9 88 57 88 122 126 24 122 80 110 70 115 2 115 59 126 36 123 122 110 111 43 110 126 122 66 126 66 126 84 114 71 61 60 104 9 48 71 76 33 36 81 123 23 60
split_gain=278.051 101.172 66.9272 41.8857 28.2556 24.2742 21.8502 21.7474 17.2969 14.9689 13.9162 11.5636 10.8011 10.6671 9.76835 12.4629 9.55965 8.89611 7.10851 10.8414 9.01913 7.06242 10.795 6.98628 6.7571 6.28216 6.11392 5.98122 6.64332 5.88858 5.62352 5.56166 5.38722 5.31344 5.07052 5.06416 4.66798 4.52198 5.51876 6.68601 4.80596 4.47671 5.33133 4.6374 4.22936 4.00717 3.89324 3.44724 3.4083 3.16499 4.33952 3.06347 2.83823 2.68996 3.13608 2.59647 4.00835 2.55786 3.53701
threshold=1.0000000180025095e-35 1.0000000180025095e-35 4.5000000000000009 31.500000000000004 94.500000000000014 1.0000000180025095e-35 7.5000000000000009 1.0000000180025095e-35 1.0000000180025095e-35 1.0000000180025095e-35 1.5000000000000002 1.0000000180025095e-35 1.0000000180025095e-35 1.0000000180025095e-35 1.0000000180025095e-35 1.5000000000000002 1.5000000000000002 1.0000000180025095e-35 64.500000000000014 24.500000000000004 1.0000000180025095e-35 14.500000000000002 1.5000000000000002 8.5000000000000018 1.0000000180025095e-35 1.0000000180025095e-35 3.5000000000000004 1.0000000180025095e-35 3.5000000000000004 70.500000000000014 2.5000000000000004 24.500000000000004 29.500000000000004 15.500000000000002 2.5000000000000004 1.0000000180025095e-35 10.500000000000002 12.500000000000002 53.500000000000007 1.0000000180025095e-35 19.500000000000004 1.0000000180025095e-35 8.5000000000000018 1.0000000180025095e-35 1.0000000180025095e-35 1.0000000180025095e-35 1.5000000000000002 1.5000000000000002 1.0000000180025095e-35 1.0000000180025095e-35 1.0000000180025095e-35 5.5000000000000009 1.0000000180025095e-35 5.5000000000000009 1.5000000000000002 1.0000000180025095e-35 15.500000000000002 1.0000000180025095e-35 3.5000000000000004
decision_type=2 2 2 2 2 2 2 2 2 2 2 2 2 2 2 2 2 2 2 2 2 2 2 2 2 2 2 2 2 2 2 2 2 2 2 2 2 2 2 2 2 2 2 2 2 2 2 2 2 2 2 2 2 2 2 2 2 2 2
left_child=2 3 6 7 36 18 25 10 17 16 13 12 32 -2 27 -16 24 37 19 -5 30 44 26 -11 -7 41 48 28 45 34 -21 -13 -8 -30 -25 -24 -3 53 39 52 -41 43 47 49 -15 -10 -20 -43 -23 50 55 -40 -39 54 -4 57 -57 58 -1
right_child=1 4 8 5 -6 9 11 -9 14 23 -12 31 -14 21 15 -17 -18 -19 46 20 -22 22 35 29 -26 -27 -28 -29 33 -31 -32 -33 -34 -35 -36 -37 -38 38 51 40 -42 42 -44 -45 -46 -47 -48 -49 -50 -51 -52 -53 -54 -55 -56 56 -58 -59 -60
leaf_value=-0.0010786043356750671 -0.0031104771350753601 0.023376210471375804 -0.0040883066987504983 -0.0030099315292548968 0.002110394029659114 0.011690639929713654 0.01029479004116938 0.022574507079116516 0.0050375403103477415 0.021218919659531803 -0.0039309492477413374 0.0085695702864644323 0.018291826613473245 0.017972648336322651 0.01289454755046412 -0.0046800195187345966 -0.0062444426184612416 -0.0054722541860543743 -0.0059319956650667662 0.0051391961728877531 -0.0011905368664044218 -0.00027231347498154237 0.010485782743128539 0.011958809347065016 -3.6131238074210286e-05 -0.0047586720757408748 0.011864921163284109 -0.0052904328024894398 0.012064918103900613 0.017100856226857239 0.016729241394967637 -0.0013226557290899111 -0.0010767435760485518 0.00047191625070223459 0.00025075468865513878 0.021461629581425976 0.016003156122718191 0.0024718924725183823 -0.0048848017540622842 2.1560009329239861e-06 0.012216692980450167 0.0056129650841031942 0.0098019143716753382 -0.0062414578075654413 0.010504994317565623 -0.003145376076728653 0.00089984558599298648 -0.0034893380868078528 0.0071892024580020343 0.0038756089699604579 -0.0057374657484940321 0.0019197827855858115 -0.0025471675368538816 -0.0052573625213266154 0.0025579354272347648 -0.00235061716953327 0.0075645827973629563 -0.0028479941648552683 0.0020907792455252651
leaf_count=5426 20 129 73 97 26 31 28 36 22 20 27 23 30 46 34 20 30 1651 103 30 37 52 37 22 30 148 29 99 22 21 23 76 24 28 24 20 33 43 209 20 20 21 25 55 48 121 35 34 30 40 63 23 195 385 32 24 27 249 112
internal_value=0 0.762157 -0.199576 0.500588 1.9199 0.174824 -0.0976373 0.9724 -0.418367 0.696421 0.820359 0.505818 0.993062 0.935581 -0.0466826 0.642432 0.195036 -0.46716 -0.113857 0.110458 0.550879 1.02971 0.813336 1.21623 0.594053 -0.115326 0.492803 -0.174762 0.00613166 0.942677 1.01677 0.0986938 0.50624 0.56022 0.588379 1.43507 2.18845 -0.335368 -0.218749 -0.0508578 0.615197 -0.106564 0.308031 -0.112126 1.41589 -0.187928 -0.419228 -0.000599935 0.246209 -0.107398 -0.110767 -0.420778 -0.163825 -0.457069 -0.205812 -0.105795 0.290728 -0.109306 -0.101423
internal_count=10438 1036 9402 848 188 503 6405 345 2997 178 309 181 82 282 346 54 91 2651 325 187 90 262 168 87 61 6224 111 292 193 67 53 99 52 50 46 57 162 1000 510 278 40 6076 80 5996 94 143 138 55 82 5941 5901 232 238 490 105 5838 51 5787 5538
shrinkage=0.01


Tree=11
num_leaves=60
num_cat=0
split_feature=21 122 26 22 54 123 23 22 122 122 23 21 122 36 21 115 23 123 123 24 7 22 75 110 23 97 38 36 114 26 36 124 123 26 122 107 70 21 114 23 38 97 2 3 70 104 2 60 68 6 114 124 23 104 29 54 7 97 38
split_gain=180.551 61.5804 52.752 37.9993 21.0612 18.0824 15.1036 14.3801 13.7131 10.6757 17.1386 10.6526 10.6736 10.5836 10.1976 9.37739 11.2414 8.05254 7.30506 7.22867 6.97952 6.79374 6.76847 6.40213 6.31148 6.11357 5.56896 5.51649 5.34213 4.9558 4.89572 4.63589 4.06241 3.78414 3.70031 3.5961 4.3733 3.53638 3.49218 3.45334 3.37766 3.98178 2.892 7.50947 2.87406 2.81487 3.20435 2.72271 2.71722 2.58308 2.37088 2.33701 2.39449 2.12115 2.9309 2.1111 1.91271 2.70729 1.88001
threshold=1.5000000000000002 26.500000000000004 1.0000000180025095e-35 1.5000000000000002 8.5000000000000018 11.500000000000002 4.5000000000000009 1.0000000180025095e-35 97.500000000000014 64.500000000000014 5.5000000000000009 4.5000000000000009 51.500000000000007 2.5000000000000004 1.0000000180025095e-35 1.0000000180025095e-35 1.5000000000000002 35.500000000000007 20.500000000000004 1.5000000000000002 13.500000000000002 3.5000000000000004 1.5000000000000002 14.500000000000002 4.5000000000000009 3.5000000000000004 1.0000000180025095e-35 1.0000000180025095e-35 3.5000000000000004 4.5000000000000009 6.5000000000000009 1.5000000000000002 11.500000000000002 1.0000000180025095e-35 21.500000000000004 8.5000000000000018 2.5000000000000004 1.0000000180025095e-35 1.0000000180025095e-35 1.0000000180025095e-35 1.0000000180025095e-35 8.5000000000000018 4.5000000000000009 2.5000000000000004 1.5000000000000002 1.5000000000000002 2.5000000000000004 6.5000000000000009 2.5000000000000004 1.0000000180025095e-35 5.5000000000000009 1.5000000000000002 1.0000000180025095e-35 1.0000000180025095e-35 1.0000000180025095e-35 1.5000000000000002 20.500000000000004 17.500000000000004 1.0000000180025095e-35
decision_type=2 2 2 2 2 2 2 2 2 2 2 2 2 2 2 2 2 2 2 2 2 2 2 2 2 2 2 2 2 2 2 2 2 2 2 2 2 2 2 2 2 2 2 2 2 2 2 2 2 2 2 2 2 2 2 2 2 2 2
left_child=1 3 5 15 6 27 8 42 13 10 19 23 28 17 21 16 18 29 26 22 55 25 33 24 34 44 37 -2 49 35 -14 -22 -18 50 39 36 47 45 -34 -7 41 -8 58 -44 -5 46 51 -4 -39 -13 -9 52 -1 54 -36 -15 -11 -58 -3
right_child=2 7 4 14 -6 11 40 9 -10 56 -12 12 30 20 -16 -17 32 -19 -20 -21 31 -23 -24 -25 -26 -27 -28 -29 -30 -31 -32 -33 38 -35 53 -37 -38 48 -40 -41 -42 -43 43 -45 -46 -47 -48 -49 -50 -51 -52 -53 -54 -55 -56 -57 57 -59 -60
leaf_value=-0.001754499071695978 0.0048973834994984738 -0.0057511970779080572 0.0069297395445530839 0.0079517814113895229 -0.0029717067499272411 -0.00028743550800368128 0.02014843956259119 -0.0037430441903396157 -0.0029051479126283469 -0.005709886762309299 0.013528594744129326 0.0098332294503717371 -0.0027895349754591238 0.014167567772450818 0.016964053413473922 -0.0052924031809119792 0.0092819837742122713 -0.00091980233132414645 -0.0051216658724273023 0.0084760403274755942 0.0030514818438960468 -0.0026356256376721334 0.007804386841247693 -0.0045151657126381783 0.0086192457940328544 0.0018247102608189905 0.0058122191128161249 0.015928295967561394 0.016631634192550107 0.016157310598385103 0.006412300736592309 0.014755239948537047 0.0060350952569487365 0.0046299653515412126 -0.0014887571957310469 0.013204512626745737 0.013354659283384404 -0.00054302814837049794 -0.0016849393889389586 0.0091892199111944933 0.020957728378487476 0.010780582882136411 0.004542396307741229 -0.0051521623214460322 0.016991184860525508 -0.0053225822516161413 0.0033460955882526496 0.00050138109278845256 0.006199679081873583 0.0014823699186199471 0.0022927602462833514 -0.0062376349067286363 0.0010208542711049988 -0.0035736019943027999 0.0047879395952424931 0.021123267138209414 0.0031371392424505281 -0.0052197068102311931 -0.0033571836766751843
leaf_count=5541 25 1892 56 24 38 26 22 277 28 240 25 27 54 21 29 232 32 29 197 21 20 26 20 109 27 31 31 32 23 26 27 22 33 20 92 30 22 49 41 22 37 38 32 116 20 68 39 32 30 20 22 36 99 82 31 37 20 31 109
internal_value=0 -0.254154 0.514943 -0.160189 0.962435 0.168148 1.0751 -0.473242 0.892092 -0.247939 -0.0547847 0.0679051 0.465129 1.00292 0.782974 -0.179435 -0.166368 0.764567 -0.17634 -0.153873 1.46709 0.516293 -0.216752 -0.0870317 0.0540297 0.785144 -0.165149 1.11007 0.968216 0.913309 0.0282993 0.920112 0.40361 -0.279593 -0.0329906 0.782298 0.63507 -0.169116 0.175894 0.406713 1.68092 1.4233 -0.544329 -0.305186 1.20613 -0.174214 -0.169954 0.45986 0.201632 0.627664 -0.329745 -0.173436 -0.170571 -0.136827 0.00987618 1.86024 -0.504602 -0.193022 -0.562047
internal_count=10438 9383 1055 6558 458 597 420 2825 323 676 385 540 151 295 130 6428 6196 195 6090 360 100 101 339 389 280 75 5893 57 70 166 81 42 106 319 253 140 110 5862 74 48 97 60 2149 148 44 5783 5715 88 79 47 299 5676 5640 205 123 58 291 51 2001
shrinkage=0.01


Tree=12
num_leaves=60
num_cat=0
split_feature=2 70 21 122 22 115 122 120 90 81 126 47 87 122 21 122 80 4 115 104 87 123 123 93 122 123 126 115 123 123 33 126 15 122 44 47 36 93 97 15 90 80 22 70 126 97 22 47 53 7 122 81 115 21 97 123 123 23 22
split_gain=185.199 124.509 65.0053 59.4926 42.2456 31.858 27.9593 18.5626 14.5737 15.8501 14.4415 14.3525 13.5129 12.1051 15.2416 13.0617 11.0427 9.28671 9.0835 10.0097 7.45935 7.3417 7.05244 7.50872 6.95854 7.36095 10.4398 6.59174 6.25686 6.0389 6.14778 5.99085 5.76487 5.60053 5.37582 5.3627 6.43671 6.10222 5.34094 5.30386 7.67553 6.1877 5.75275 5.21901 5.07503 4.87588 4.68084 4.44817 5.48205 4.41684 6.02914 7.2264 5.50625 5.3037 5.48961 4.35541 4.2651 4.22918 4.20748
threshold=1.0000000180025095e-35 1.5000000000000002 1.0000000180025095e-35 49.500000000000007 1.0000000180025095e-35 1.0000000180025095e-35 63.500000000000007 1.0000000180025095e-35 1.5000000000000002 1.0000000180025095e-35 25.500000000000004 1.0000000180025095e-35 1.0000000180025095e-35 1.0000000180025095e-35 1.0000000180025095e-35 23.500000000000004 2.5000000000000004 1.0000000180025095e-35 1.0000000180025095e-35 1.5000000000000002 1.0000000180025095e-35 33.500000000000007 5.5000000000000009 1.0000000180025095e-35 83.500000000000014 34.500000000000007 16.500000000000004 2.5000000000000004 13.500000000000002 19.500000000000004 5.5000000000000009 2.5000000000000004 1.0000000180025095e-35 76.500000000000014 1.5000000000000002 1.0000000180025095e-35 2.5000000000000004 1.0000000180025095e-35 3.5000000000000004 1.0000000180025095e-35 1.5000000000000002 2.5000000000000004 1.5000000000000002 4.5000000000000009 10.500000000000002 13.500000000000002 1.5000000000000002 1.0000000180025095e-35 1.5000000000000002 1.5000000000000002 18.500000000000004 1.0000000180025095e-35 1.0000000180025095e-35 2.5000000000000004 4.5000000000000009 27.500000000000004 27.500000000000004 1.0000000180025095e-35 1.5000000000000002
decision_type=2 2 2 2 2 2 2 2 2 2 2 2 2 2 2 2 2 2 2 2 2 2 2 2 2 2 2 2 2 2 2 2 2 2 2 2 2 2 2 2 2 2 2 2 2 2 2 2 2 2 2 2 2 2 2 2 2 2 2
left_child=1 3 4 7 6 -4 11 8 9 13 17 12 16 -1 15 22 18 24 19 31 47 -18 57 46 25 39 -27 -6 -17 -10 -31 -3 -13 56 -12 36 37 -30 -21 40 -2 42 49 -23 55 -28 -24 48 -8 -41 -51 52 53 54 -52 -40 -5 -15 -16
right_child=10 2 5 33 27 -7 20 -9 29 -11 34 32 -14 14 58 28 21 -19 -20 38 -22 43 23 -25 -26 26 45 -29 35 30 -32 -33 -34 -35 -36 -37 -38 -39 44 41 -42 -43 -44 -45 -46 -47 -48 -49 -50 50 51 -53 -54 -55 -56 -57 -58 -59 -60
leaf_value=0.0039602525539036834 -0.0029703300456262452 0.0047791392850182616 -0.0020760132664867027 -0.0032135737709028402 0.0025679417141160937 0.012560828441287633 0.0070427264824678209 0.017344087955718814 0.0058396675607475784 -0.0029866003396834236 -0.0038031264414681975 0.016695499615211579 -8.0501894735019317e-05 0.018228510898436471 0.0035976333513497876 -0.002055532852069432 0.0035768201198107252 -0.0054308500542399234 0.015752997455938118 -0.0008614331576026822 -0.0047700245152884155 0.017601273049141903 0.010481188036940977 -0.0016123268726398227 -0.0055855623182183888 0.014279530703252339 0.00044423245511313297 0.012930075026391714 0.0054348384152550187 0.016343051414813549 0.0082422646242685301 0.013749727102274661 0.0097609016194407563 -0.0046482803640052273 -0.0010823971601219297 0.014228452309570729 0.01126959510079761 -0.0029875574421084207 0.0072674793242800172 0.011402001534340114 0.0063653093544428201 -0.0026216212234943604 -0.0019155212272093725 0.0075157860608579142 0.0017932954662664643 0.0099999650798782685 0.0024210138980290687 0.011468739101709667 -0.001957931690471061 -0.00087078725197052554 0.0011468426508934569 -0.0039324712511318192 0.013906851208196139 -0.0011842786353179367 0.0088936136938991325 0.017045271559540651 0.0016700222080736572 0.0091144506875391346 -0.002423721540451933
leaf_count=5211 190 25 209 103 204 59 77 34 141 96 527 293 30 45 139 37 72 77 225 23 21 27 210 20 48 30 79 21 90 45 81 270 42 197 401 21 37 38 32 21 32 86 72 38 23 21 25 40 29 87 42 27 23 37 88 25 122 24 49
internal_value=0 0.506449 0.918731 0.396884 1.05887 0.117196 1.18048 0.439349 0.432333 0.414505 -0.104989 1.27934 1.15018 0.425928 0.63733 0.785297 1.19559 0.0466009 1.29454 1.135 0.507339 0.744215 1.01019 0.874956 0.0977377 0.135151 0.520373 0.353651 0.457115 0.834678 1.11409 1.29895 1.58268 -0.246466 -0.262738 0.588322 0.481343 0.294092 0.662844 0.0638806 -0.16205 0.16764 0.260495 1.17148 0.876806 0.245573 0.962754 0.648188 0.458677 0.360306 0.30608 0.463122 0.584054 0.472411 0.639541 1.1575 -0.0562514 1.5068 0.203249
internal_count=10438 8550 1785 6765 1517 268 1292 6343 6309 6042 1888 1125 790 5946 735 547 760 960 623 398 167 137 324 255 883 835 130 225 223 267 126 295 335 422 928 186 165 128 103 705 222 483 397 65 80 100 235 146 106 325 304 217 190 167 130 57 225 69 188
shrinkage=0.01


Tree=13
num_leaves=60
num_cat=0
split_feature=0 97 21 21 52 122 55 115 25 43 60 123 125 107 110 59 123 2 125 26 110 52 125 19 122 25 0 36 97 62 31 57 95 11 22 2 56 90 123 21 70 17 21 123 67 61 90 3 48 110 123 31 90 49 57 105 106 24 67
split_gain=31.3806 23.3721 21.1156 20.4252 13.707 12.2296 12.3116 8.42923 7.22656 6.42771 5.70933 10.3314 6.47503 5.74069 5.02494 4.17184 3.83207 5.57276 5.51885 3.77286 4.23709 3.75095 3.6662 3.55599 3.46658 3.44016 3.34928 3.5487 3.30194 3.29337 5.59429 4.53007 6.352 4.20504 3.8963 3.51393 3.23425 3.1489 4.51633 3.8758 3.12495 3.12387 3.12076 3.47762 2.89234 2.47799 2.94115 2.41297 3.7317 3.14341 3.06818 5.16365 3.71367 3.70234 3.1462 4.34864 3.0379 3.44565 3.29738
threshold=1.5000000000000002 5.5000000000000009 3.5000000000000004 1.0000000180025095e-35 1.0000000180025095e-35 129.50000000000003 1.0000000180025095e-35 1.0000000180025095e-35 1.0000000180025095e-35 1.0000000180025095e-35 18.500000000000004 65.500000000000014 37.500000000000007 12.500000000000002 13.500000000000002 6.5000000000000009 36.500000000000007 1.0000000180025095e-35 8.5000000000000018 1.0000000180025095e-35 7.5000000000000009 1.0000000180025095e-35 53.500000000000007 1.0000000180025095e-35 50.500000000000007 1.0000000180025095e-35 4.5000000000000009 2.5000000000000004 13.500000000000002 1.0000000180025095e-35 1.0000000180025095e-35 2.5000000000000004 1.0000000180025095e-35 1.5000000000000002 1.0000000180025095e-35 4.5000000000000009 1.5000000000000002 1.0000000180025095e-35 42.500000000000007 6.5000000000000009 3.5000000000000004 7.5000000000000009 1.0000000180025095e-35 34.500000000000007 2.5000000000000004 1.0000000180025095e-35 1.5000000000000002 1.0000000180025095e-35 1.0000000180025095e-35 9.5000000000000018 44.500000000000007 1.0000000180025095e-35 4.5000000000000009 1.5000000000000002 2.5000000000000004 1.0000000180025095e-35 1.0000000180025095e-35 1.0000000180025095e-35 2.5000000000000004
decision_type=2 2 2 2 2 2 2 2 2 2 2 2 2 2 2 2 2 2 2 2 2 2 2 2 2 2 2 2 2 2 2 2 2 2 2 2 2 2 2 2 2 2 2 2 2 2 2 2 2 2 2 2 2 2 2 2 2 2 2
left_child=1 3 5 4 7 6 8 9 10 25 11 12 15 -14 -8 21 17 18 -9 20 -4 23 -7 29 -2 -1 27 -26 -10 33 31 32 34 35 42 36 41 -22 -39 -40 -21 47 43 -31 -24 46 -12 50 49 -49 53 52 -52 54 55 56 57 58 -3
right_child=24 2 19 -5 -6 22 14 16 28 -11 45 -13 13 -15 -16 -17 -18 -19 -20 40 37 -23 44 -25 26 -27 -28 -29 -30 30 -32 -33 -34 -35 -36 -37 -38 38 39 -41 -42 -43 -44 -45 -46 -47 -48 48 -50 -51 51 -53 -54 -55 -56 -57 -58 -59 -60
leaf_value=-0.00064584214750657053 -0.0056936778800108067 0.0021196652363522969 -0.0049968142707039328 -0.0043543314983781256 0.011294219387435007 -0.0046582753001143014 0.017250473825698977 0.0034121741046488096 -0.0032322798127100358 -0.0050664712230063039 0.0050805294710203506 0.011219022363823628 0.00084603648108753568 0.012351767525220251 0.0056790769740560562 -0.0031368676614967998 -0.003853919468897361 -0.0033984613157448319 0.013005984881879496 -0.0056598645169934304 -0.0047606284230954704 0.0092644449910376896 -0.0025560294478168362 -0.0032030569075105807 0.0042035912249076476 -0.0050978714136560603 -0.0052219609259601639 -0.0027949963763450442 0.0022275366641256152 0.0047814550998043657 -0.0046920061535381911 -0.0021831913017908728 0.012966470316270531 0.0086945777362559401 -0.0021946366589090513 -0.003708817076997893 0.007358101491312931 0.0093193198229027403 0.0045027117811551635 -0.004995160104681047 -0.0005976659546716688 0.008006478949737203 0.00067952866517204645 0.012602529087167642 0.005463435323599916 -0.0062513160718052491 -0.0027956821959189194 0.003249268434954954 -0.0053579240076115009 -0.0010913866306695107 0.0010509628302558722 0.012112983749910176 0.007369806249440336 -0.0031292708710886318 -0.0012083058673119311 0.010037282557361608 -0.0029704442565150454 0.0065857663803122234 -0.0027911627211734636
leaf_count=6057 352 808 50 483 30 119 21 168 125 107 22 39 22 35 26 50 26 33 21 163 21 22 34 41 33 55 93 73 48 48 20 23 34 27 23 37 32 24 29 25 50 24 27 28 24 31 45 95 35 115 98 22 41 50 99 21 38 51 45
internal_value=0 -0.0282535 0.104799 -0.0837974 -0.0577632 0.161449 0.194824 -0.0633211 0.176645 -0.0760826 0.204533 0.224431 0.206927 0.792855 1.08653 0.189797 0.25613 0.331337 0.448127 -0.29539 -0.0798779 0.203017 -0.287649 0.194527 -0.463337 -0.0685742 -0.276453 -0.0612334 -0.171504 0.205969 0.41803 0.514805 0.619987 0.17967 0.43727 0.168066 0.180685 0.131758 0.295152 0.0113282 -0.446963 0.169145 0.583931 0.766834 0.0769047 -0.211846 -0.0210737 0.159143 -0.0013892 0.0875314 0.190017 0.417559 0.291847 0.156994 0.179089 0.209891 0.192154 0.21271 0.186054
internal_count=10438 9887 2907 6980 6497 2545 2368 6467 2321 6219 2148 2050 2011 57 47 1954 248 222 189 362 149 1904 177 1882 551 6112 199 106 173 1841 203 183 160 1638 126 1611 1574 99 78 54 213 1542 103 76 58 98 67 1518 245 210 1273 161 139 1112 1062 963 942 904 853
shrinkage=0.01


Tree=14
num_leaves=60
num_cat=0
split_feature=79 82 86 122 122 122 70 124 126 80 122 82 124 122 123 123 83 86 80 122 104 84 70 122 125 7 7 90 122 70 93 7 123 122 60 113 80 86 122 125 122 2 95 122 80 125 114 68 7 122 125 57 125 83 70 125 33 114 123
split_gain=315.236 133.347 63.5241 65.4475 60.9742 42.7778 21.1811 19.7557 15.0388 15.4136 14.3539 14.3351 13.3377 13.0089 12.381 10.8528 9.94358 9.63287 8.72013 7.67278 7.97423 6.91668 7.00644 6.17921 6.45278 6.0096 5.81226 4.90702 4.81359 6.65642 4.71489 4.92334 4.6141 4.55051 4.42946 4.21801 4.18567 4.11748 3.89248 3.78595 6.01202 3.71577 3.63197 3.1163 3.00397 3.75144 5.12388 4.646 3.19834 2.79456 3.89393 2.63005 2.61191 3.44399 5.37736 2.57175 3.45475 3.03372 2.25989
threshold=1.0000000180025095e-35 1.0000000180025095e-35 1.0000000180025095e-35 1.0000000180025095e-35 65.500000000000014 48.500000000000007 1.5000000000000002 1.0000000180025095e-35 40.500000000000007 4.5000000000000009 45.500000000000007 1.0000000180025095e-35 1.5000000000000002 43.500000000000007 44.500000000000007 22.500000000000004 1.0000000180025095e-35 1.0000000180025095e-35 1.5000000000000002 84.500000000000014 1.5000000000000002 1.5000000000000002 1.0000000180025095e-35 106.50000000000001 35.500000000000007 6.5000000000000009 1.5000000000000002 2.5000000000000004 115.50000000000001 3.5000000000000004 1.5000000000000002 11.500000000000002 47.500000000000007 29.500000000000004 5.5000000000000009 2.5000000000000004 3.5000000000000004 1.0000000180025095e-35 129.50000000000003 13.500000000000002 28.500000000000004 1.0000000180025095e-35 1.0000000180025095e-35 103.50000000000001 2.5000000000000004 11.500000000000002 2.5000000000000004 7.5000000000000009 4.5000000000000009 39.500000000000007 11.500000000000002 2.5000000000000004 37.500000000000007 1.0000000180025095e-35 2.5000000000000004 33.500000000000007 9.5000000000000018 2.5000000000000004 22.500000000000004
decision_type=2 2 2 2 2 2 2 2 2 2 2 2 2 2 2 2 2 2 2 2 2 2 2 2 2 2 2 2 2 2 2 2 2 2 2 2 2 2 2 2 2 2 2 2 2 2 2 2 2 2 2 2 2 2 2 2 2 2 2
left_child=1 2 3 -1 6 16 13 8 9 15 58 12 21 39 27 -7 33 18 -3 20 -11 22 37 52 -25 -15 -18 36 29 -24 55 -32 -21 -5 -8 -27 -12 -6 -14 40 -2 49 -20 -13 -35 46 47 48 -46 -28 -51 -26 53 -9 -55 56 -17 -58 -4
right_child=4 17 10 5 11 7 34 23 -10 19 14 43 38 25 -16 30 26 -19 42 32 -22 -23 28 24 51 35 41 -29 -30 -31 31 -33 -34 44 -36 -37 -38 -39 -40 -41 -42 -43 -44 -45 45 -47 -48 -49 -50 50 -52 -53 -54 54 -56 -57 57 -59 -60
leaf_value=-0.00063559267892344268 -0.001244186852183024 0.0026811240718223896 0.0041407189957079066 -0.0055391250480024473 0.019142311428124295 0.011527251212420504 0.0035798357939243555 -0.0036847307767223039 -0.0035368519826727675 0.00093416552068913724 0.0071731172493712881 0.01664703812620668 0.00038534924669511957 0.017711824320997823 0.0034501368186929684 -0.0028666327479537597 0.0077830792393420159 0.022416722141617496 0.019069097615671576 0.01880948462779089 0.012111273759669337 0.021197780288147863 0.012028637458085334 0.0099921000164589543 -0.0044664481046985064 0.013517845301156919 -0.0021540954453099811 0.022028162051707573 0.014606012371521355 -7.7988384121924006e-05 0.010592659645276774 -0.00083341472324667749 0.007670126823650405 -0.0046088344957233773 -0.0037937899569278869 0.0035956306149649616 0.016927785881262047 0.011880587830321015 0.010516538956832043 -0.0032646011563415957 0.010014569308479986 -0.0057543180962227481 0.0099897032427155655 0.022776108392905014 0.010949416508850222 -0.0040705218105771112 -0.006243721931772246 -0.0046620081443131357 0.0020363456238462608 0.0085131143347001777 -0.0016176384327801494 0.0032199252766315109 -0.0059763579715206728 0.0078577527051914824 -0.0034064591066153677 -0.0054072698433627999 -0.00048366279336756608 0.0061855292139523857 -0.0032743106947674678
leaf_count=5211 25 21 33 1724 67 28 38 306 127 52 23 40 28 42 35 83 20 48 39 27 32 42 32 21 35 28 130 27 41 25 24 23 20 869 77 25 33 37 20 21 36 65 21 69 20 174 28 20 34 21 27 23 119 22 33 37 54 35 21
internal_value=0 -0.152414 -0.176568 -0.196115 1.07296 -0.35993 0.45844 -0.0605489 0.179323 0.341546 0.882133 1.51369 1.31115 0.838397 1.22329 0.109999 -0.465926 1.62195 1.24996 0.840768 0.520914 1.47637 1.34161 -0.294205 0.163041 1.27823 -0.136764 1.59092 1.00433 0.673093 -0.00425829 0.5007 1.40854 -0.496269 -0.134434 0.884192 1.29425 1.65656 0.464377 0.322246 0.543613 -0.212353 1.59009 2.05355 -0.409666 -0.248654 0.0207563 0.264773 0.533907 -0.0804999 0.283297 -0.141287 -0.369891 -0.295029 0.111681 -0.117991 -0.0271988 0.214193 0.126059
internal_count=10438 9745 9616 9444 693 4233 292 1101 542 415 172 401 292 177 118 284 3132 129 81 131 84 244 202 559 79 95 263 83 98 57 256 47 47 2869 115 53 56 104 48 82 61 243 60 109 1145 276 102 74 54 178 48 58 480 361 55 209 172 89 54
shrinkage=0.01


Tree=15
num_leaves=60
num_cat=0
split_feature=2 12 97 125 107 21 8 21 6 70 66 2 107 70 13 66 125 19 33 68 7 122 57 44 90 7 125 53 125 49 17 68 114 88 2 122 122 122 111 107 123 1 90 124 76 38 60 21 122 87 9 123 80 88 76 33 107 71 125
split_gain=179.305 108.523 77.3157 50.4637 46.9593 25.5338 23.4873 21.5312 20.2732 19.3763 16.5262 15.6726 13.4644 13.0543 12.8156 11.2113 11.2041 10.0254 9.21544 8.10113 8.68461 8.03653 7.49454 8.37561 7.22965 6.33204 6.54461 5.94336 5.91521 6.69555 5.75833 5.624 5.58875 5.18819 5.89889 8.01719 5.05697 4.95947 4.48182 4.46241 4.35635 4.16375 3.92944 3.87337 3.84378 3.75479 3.65303 3.57617 3.50516 4.44599 3.4315 3.09511 2.48547 2.46413 4.61763 5.01743 6.77995 2.65885 2.5036
threshold=1.5000000000000002 1.0000000180025095e-35 4.5000000000000009 24.500000000000004 15.500000000000002 1.0000000180025095e-35 1.0000000180025095e-35 1.0000000180025095e-35 1.0000000180025095e-35 2.5000000000000004 3.5000000000000004 1.0000000180025095e-35 2.5000000000000004 6.5000000000000009 1.0000000180025095e-35 1.0000000180025095e-35 4.5000000000000009 1.0000000180025095e-35 7.5000000000000009 7.5000000000000009 7.5000000000000009 104.50000000000001 1.0000000180025095e-35 2.5000000000000004 1.0000000180025095e-35 6.5000000000000009 17.500000000000004 1.0000000180025095e-35 9.5000000000000018 1.0000000180025095e-35 1.0000000180025095e-35 5.5000000000000009 2.5000000000000004 1.0000000180025095e-35 1.0000000180025095e-35 39.500000000000007 33.500000000000007 29.500000000000004 1.5000000000000002 3.5000000000000004 53.500000000000007 1.0000000180025095e-35 1.0000000180025095e-35 1.5000000000000002 2.5000000000000004 1.0000000180025095e-35 4.5000000000000009 5.5000000000000009 62.500000000000007 1.0000000180025095e-35 1.0000000180025095e-35 21.500000000000004 1.0000000180025095e-35 1.0000000180025095e-35 2.5000000000000004 3.5000000000000004 5.5000000000000009 1.0000000180025095e-35 5.5000000000000009
decision_type=2 2 2 2 2 2 2 2 2 2 2 2 2 2 2 2 2 2 2 2 2 2 2 2 2 2 2 2 2 2 2 2 2 2 2 2 2 2 2 2 2 2 2 2 2 2 2 2 2 2 2 2 2 2 2 2 2 2 2
left_child=2 3 5 6 -3 11 8 33 32 16 14 19 -13 18 22 28 -7 -15 44 20 27 -6 23 24 -5 52 -27 43 -10 39 -11 41 46 34 45 -36 42 -14 -8 -30 -26 -17 -22 50 47 -4 -2 51 49 -24 53 -9 -18 54 57 56 -56 58 -1
right_child=1 4 7 10 21 9 38 13 15 30 -12 12 37 17 -16 31 25 -19 -20 -21 36 -23 48 -25 40 26 -28 -29 29 -31 -32 -33 -34 -35 35 -37 -38 -39 -40 -41 -42 -43 -44 -45 -46 -47 -48 -49 -50 -51 -52 -53 -54 -55 55 -57 -58 -59 -60
leaf_value=-0.0010822384232185359 0.012063294927648712 0.021684844475226416 -0.0048810334745133009 0.008793723951467762 0.01035098536722878 0.012124625071540643 0.020845929829311775 0.0014177827098924771 0.0068507215532253333 0.017100654708363978 0.012299986484874022 0.014226534105002965 0.004284463723396653 0.0014456961588361411 0.0087481833809923623 0.0076983295764568617 -0.0041570676543103823 0.01583480658901738 -0.0040565780215076931 -0.0062377316214885003 0.0035783680938454164 -0.0032154146549616307 -0.0036899405172958716 -0.0052229862886229361 -0.0021337366003294361 0.010760216720778284 -0.0019915898635422418 -0.0058574997865829207 0.004860812028975937 0.0066128958001318103 0.0075328591812510665 0.0022271690478410568 0.0056676992403049313 -0.0057753567164122955 0.006148817651393813 -0.0040984602828378911 -0.0017796649200713583 -0.0050492977132920334 0.010657402546738026 -0.0033272209698137745 0.0060233173610153732 0.018445699419367249 0.014198213593172528 -0.0062326024664457027 -0.0026941796187294688 0.0018692375976436257 0.020330269895588535 -0.0035168995280972165 -0.005442692384312716 0.006188938290029802 0.0047952181586184157 0.0078377309936183536 0.00058850890914992576 -0.0034564286480459738 0.0096694925580094303 -0.0032200662974026699 -0.001623302942540266 -0.0037777443125813961 0.0032012424833391356
leaf_count=5321 57 152 583 41 24 27 39 53 47 34 28 36 56 53 35 22 75 21 347 98 22 31 49 62 76 29 22 84 25 36 45 22 31 1470 40 59 21 26 20 118 28 22 21 46 62 27 23 23 199 20 31 42 64 135 43 31 27 114 43
internal_value=0 0.53452 -0.187116 0.291251 1.67853 -0.0810756 0.715981 -0.434925 0.563134 0.424821 -0.078231 -0.10557 0.530063 -0.138154 -0.151689 0.318828 0.151017 0.556689 -0.236311 -0.118116 -0.109804 0.276901 -0.228364 0.0239407 0.255383 -0.000747246 0.52956 -0.116906 0.131123 -0.0158726 1.16848 0.95334 1.20037 -0.517209 -0.392627 0.00783004 0.53508 0.133517 1.74316 -0.188104 0.00640094 1.31154 0.878433 -0.110147 0.0881654 -0.458032 1.44478 0.27507 -0.424421 -0.0813847 -0.106064 0.426137 -0.196967 -0.109259 -0.103544 0.270734 0.532281 -0.110471 -0.104783
internal_count=10438 1207 9231 1000 207 6451 462 2780 403 296 538 6155 118 601 510 292 217 74 527 6037 5939 55 475 207 145 190 51 5875 226 179 79 66 111 2179 709 99 64 82 59 143 104 44 43 5791 180 610 80 118 268 69 5745 95 139 5714 5579 101 70 5478 5364
shrinkage=0.01


Tree=16
num_leaves=60
num_cat=0
split_feature=32 22 97 22 23 122 43 17 122 23 23 49 22 66 57 24 32 48 97 23 126 110 123 62 29 43 122 122 43 36 33 66 22 98 76 52 23 36 57 126 113 122 122 110 2 3 23 17 122 49 122 67 67 60 60 61 122 67 0
split_gain=121.524 56.001 42.2939 31.8248 22.6572 20.4048 17.0899 15.6407 13.3234 11.6342 11.6103 10.4396 9.98384 9.03479 8.01925 7.9698 7.69385 7.47632 7.45418 7.32472 8.92045 7.05826 6.90509 6.21504 6.13097 5.57638 7.67361 5.54456 5.04881 4.32163 5.52207 4.11392 4.07023 3.88269 3.76591 3.64991 3.66028 3.58474 3.51258 3.58141 3.46024 3.43317 3.84306 3.36417 3.09941 6.07603 3.5984 4.30242 5.61585 2.95081 2.906 2.89418 2.72433 2.68259 2.62756 2.54282 2.49289 2.45252 2.39217
threshold=1.0000000180025095e-35 1.0000000180025095e-35 4.5000000000000009 1.0000000180025095e-35 4.5000000000000009 85.500000000000014 1.0000000180025095e-35 3.5000000000000004 37.500000000000007 4.5000000000000009 5.5000000000000009 2.5000000000000004 2.5000000000000004 1.0000000180025095e-35 1.0000000180025095e-35 1.0000000180025095e-35 1.5000000000000002 1.0000000180025095e-35 17.500000000000004 1.5000000000000002 5.5000000000000009 6.5000000000000009 30.500000000000004 1.0000000180025095e-35 1.0000000180025095e-35 1.0000000180025095e-35 13.500000000000002 16.500000000000004 3.5000000000000004 2.5000000000000004 10.500000000000002 1.0000000180025095e-35 1.0000000180025095e-35 1.0000000180025095e-35 3.5000000000000004 1.0000000180025095e-35 1.0000000180025095e-35 1.5000000000000002 1.0000000180025095e-35 18.500000000000004 7.5000000000000009 15.500000000000002 20.500000000000004 1.5000000000000002 4.5000000000000009 2.5000000000000004 2.5000000000000004 3.5000000000000004 41.500000000000007 1.5000000000000002 24.500000000000004 1.0000000180025095e-35 1.5000000000000002 12.500000000000002 5.5000000000000009 1.5000000000000002 46.500000000000007 1.0000000180025095e-35 1.0000000180025095e-35
decision_type=2 2 2 2 2 2 2 2 2 2 2 2 2 2 2 2 2 2 2 2 2 2 2 2 2 2 2 2 2 2 2 2 2 2 2 2 2 2 2 2 2 2 2 2 2 2 2 2 2 2 2 2 2 2 2 2 2 2 2
left_child=2 8 3 17 11 10 15 56 16 -7 22 14 -9 21 24 33 37 19 -14 25 -21 -13 29 52 27 34 -27 43 -16 30 50 32 -26 35 49 36 -5 -2 39 -10 44 -38 -43 -4 46 -46 55 48 -48 -1 -3 -31 -24 -30 -8 -29 -6 -44 -22
right_child=1 5 4 6 7 9 54 12 38 -11 -12 13 18 -15 28 -17 -18 -19 -20 20 58 -23 23 -25 31 26 -28 40 53 51 -32 -33 -34 -35 -36 -37 41 -39 -40 -41 -42 42 57 -45 45 -47 47 -49 -50 -51 -52 -53 -54 -55 -56 -57 -58 -59 -60
leaf_value=-0.0017450085351788617 -0.0015244869895730635 0.010831983804813317 -0.0031193482260239848 -0.00069042717836302646 0.015534647174648206 -0.0033927595049153087 0.018526823843110957 -0.0038872404849408398 -0.0062339324392700225 0.0096067991220853619 0.018014994732637516 0.012068526467885247 0.010599480284241751 -0.0049220000294881508 -0.0055197040930384028 0.011498094476516349 0.011953590812618473 -0.0059781806420251627 -0.003084732490832433 0.01255431389665961 0.0018676879131916695 0.00029135716546093408 -0.00025227779220794922 0.012792993406582439 -0.00078087431170091397 0.0076064600764637206 -0.0015349599338509475 -0.0052366908646940945 -0.0046537544753212715 0.012141336105301005 0.017701155617839474 -0.0052838130270458977 0.006654604688344716 -0.0038463311286896923 -0.0049094596981433718 -0.0046730728400929209 0.011004743613075027 0.0066987338742186108 -0.0062326287496539592 0.0023112259214481726 0.0010331091419624593 -0.0031211851514485241 0.009857305513249915 0.0066885151206703243 0.0071751697418555842 -0.0039924913370416211 0.008651578265009164 -0.0049986945256698069 -0.0035963427855555852 0.0045932394823090797 0.0050957714706552238 0.021079482951042817 0.0065878941246166082 0.0038551022185532077 0.010316198934727362 -0.00060017942983998549 0.0069895753114781632 0.0015654523593878341 -0.0048016152850941423
leaf_count=5770 53 66 20 45 21 55 21 107 25 35 61 27 33 48 1606 26 27 127 20 23 73 38 36 29 63 47 73 792 20 23 24 33 36 39 119 20 25 24 101 40 39 20 25 24 21 56 23 51 24 23 46 21 36 28 28 39 21 20 22
internal_value=0 0.531542 -0.226524 -0.145168 -0.394232 0.920445 0.448579 0.178276 -0.102941 0.170978 1.11394 -0.433317 -0.0760056 0.0935206 -0.454223 0.237779 0.391124 -0.170848 0.549357 -0.162096 0.273753 0.5199 0.962945 0.594573 -0.345273 -0.170668 0.206195 -0.389197 -0.53496 1.16737 1.01265 0.0144411 0.193922 0.114071 -0.178363 0.239238 0.343134 0.104928 -0.415618 -0.0953453 -0.415318 0.547998 0.333389 0.224643 -0.435433 -0.093817 -0.463847 -0.142535 0.243756 -0.171969 0.848646 1.64103 0.317213 0.0318806 1.38548 -0.501837 1.12883 0.618866 0.0334517
internal_count=10438 702 9736 6546 3190 432 269 202 270 90 342 2988 160 113 2875 220 104 6277 53 6150 118 65 281 101 1221 6032 120 1089 1654 180 136 132 99 194 5912 155 135 77 166 65 1045 90 65 44 1006 77 929 98 47 5793 112 44 72 48 49 831 42 45 95
shrinkage=0.01


Tree=17
num_leaves=60
num_cat=0
split_feature=48 2 126 79 72 79 86 21 124 86 126 83 0 107 124 97 43 79 88 107 44 70 25 126 17 70 111 44 60 70 15 90 7 76 59 85 36 111 17 92 36 88 60 60 60 36 116 68 54 70 68 23 68 98 98 126 107 107 70
split_gain=184.036 147.436 52.9171 40.7386 38.9997 19.5827 18.8368 15.5312 18.1958 13.6399 18.379 18.3175 13.3473 13.2337 12.4185 10.7956 9.88825 9.46859 9.17263 8.84213 8.74514 8.33347 7.72866 8.02187 7.62547 7.28238 7.03715 6.74762 6.77843 6.70079 6.3526 10.8751 6.08923 5.8913 6.57427 5.83798 5.71958 4.57614 4.42525 4.17205 4.13714 4.07402 4.54144 4.06697 7.63175 5.0724 10.2707 11.6149 4.49461 4.3248 4.15481 4.5116 4.05071 4.34319 4.04763 4.01978 3.97882 3.97483 3.91985
threshold=1.0000000180025095e-35 1.0000000180025095e-35 28.500000000000004 1.0000000180025095e-35 1.0000000180025095e-35 1.0000000180025095e-35 1.0000000180025095e-35 1.0000000180025095e-35 1.5000000000000002 1.0000000180025095e-35 1.0000000180025095e-35 1.0000000180025095e-35 1.5000000000000002 15.500000000000002 1.5000000000000002 18.500000000000004 1.0000000180025095e-35 1.0000000180025095e-35 1.5000000000000002 12.500000000000002 1.0000000180025095e-35 2.5000000000000004 1.0000000180025095e-35 24.500000000000004 1.0000000180025095e-35 1.0000000180025095e-35 2.5000000000000004 1.5000000000000002 1.5000000000000002 1.5000000000000002 1.0000000180025095e-35 2.5000000000000004 7.5000000000000009 1.5000000000000002 2.5000000000000004 1.0000000180025095e-35 1.0000000180025095e-35 1.0000000180025095e-35 1.5000000000000002 1.0000000180025095e-35 3.5000000000000004 1.0000000180025095e-35 2.5000000000000004 1.5000000000000002 1.0000000180025095e-35 1.0000000180025095e-35 1.0000000180025095e-35 2.5000000000000004 1.0000000180025095e-35 1.0000000180025095e-35 2.5000000000000004 1.0000000180025095e-35 8.5000000000000018 1.0000000180025095e-35 1.0000000180025095e-35 58.500000000000007 10.500000000000002 8.5000000000000018 2.5000000000000004
decision_type=2 2 2 2 2 2 2 2 2 2 2 2 2 2 2 2 2 2 2 2 2 2 2 2 2 2 2 2 2 2 2 2 2 2 2 2 2 2 2 2 2 2 2 2 2 2 2 2 2 2 2 2 2 2 2 2 2 2 2
left_child=1 3 5 4 7 15 14 8 9 10 -1 13 17 16 19 25 18 22 32 27 -10 37 23 30 -13 -2 36 28 -6 -9 31 -3 40 -32 41 -27 -20 -5 -30 52 43 42 -35 44 -12 50 47 48 -47 -46 51 -45 -4 -54 -44 -25 -7 -19 -40
right_child=2 12 39 21 6 56 -8 29 20 -11 11 24 -14 -15 -16 -17 -18 57 26 -21 -22 -23 -24 55 -26 35 -28 -29 38 -31 33 -33 -34 34 -36 -37 -38 -39 58 -41 -42 -43 54 45 49 46 -48 -49 -50 -51 -52 -53 53 -55 -56 -57 -58 -59 -60
leaf_value=0.0039489712871709996 0.0056777925009286892 -0.0020575129197747642 -0.0032317139588738152 0.0023295809234342795 0.0036325450779916687 0.0084327899894812951 -0.0027886091958263422 0.0026819377958553076 0.016044095674152402 -0.0030504568802666408 0.0046900100789912351 -0.0049846145960634816 -0.0042439541135840505 0.00057377116627825684 0.018159384914734112 0.0017865978637675484 0.0023330246609329524 0.0018312171663175576 0.0095187835137022902 0.0032577964468629749 0.004023790965700642 0.0028190716346893712 -0.0028417698738352373 -0.0020809152395720077 0.0034839292048103754 0.01472656249680818 0.0048521440696864173 0.0020094270654673098 0.014271779328109878 -0.0017938527469500249 0.00098981542256286296 0.011341128940518103 0.003710931766903602 0.01196952996905621 -0.0016935486807385085 0.0070814887742890378 0.018622297159330142 -0.0041560161851014674 0.0054114445770969124 -0.0062385963542420453 0.015929988195367201 0.010533793723224305 0.00080219410598998523 0.012311298663307262 0.016853136578995856 0.00037489148773844422 -0.0015111729109127828 0.013253784273944514 0.0087116789300779839 0.0090278490256997801 0.00262164792748681 0.0033675320485287309 0.010704902589283589 -3.9414289605195205e-05 0.0092520703523745682 0.0045257041517979451 -0.00079283153231620178 -0.0050251056871965403 0.012459142383603735
leaf_count=5243 31 171 31 40 31 25 36 275 60 78 42 49 410 82 56 23 86 31 33 62 27 99 231 294 102 666 25 26 145 168 176 21 96 22 34 32 59 226 42 28 22 59 66 38 54 37 26 138 43 36 97 32 22 25 24 32 34 182 57
internal_value=0 0.319792 1.13969 0.42331 0.451447 1.28941 0.947982 0.418624 0.440256 0.429365 0.43832 0.644891 -0.144201 0.735068 1.05146 1.36472 0.798607 -0.0591234 0.860857 0.932745 1.23488 -0.153609 0.00512355 0.07897 0.0741345 1.40149 1.31303 1.05574 1.13589 0.0987606 0.204271 -0.0576706 0.780714 0.335887 0.538656 1.43788 1.5361 -0.317564 1.23333 -0.0361505 0.849853 0.679173 0.481722 0.819591 1.08662 0.733428 0.894339 1.018 0.486104 1.37318 0.497549 0.823244 0.172942 0.498995 0.3058 -0.143171 0.314145 -0.402264 0.947824
internal_count=10438 9521 917 7768 7403 811 455 6948 6505 6418 6340 1097 1753 946 419 752 864 1343 778 363 87 365 1130 899 151 729 117 301 275 443 573 192 661 381 205 698 92 266 244 106 565 171 112 543 132 411 244 218 80 90 167 70 78 47 90 326 59 213 99
shrinkage=0.01


Tree=18
num_leaves=60
num_cat=0
split_feature=0 97 21 21 82 115 25 27 43 40 122 33 124 56 97 124 97 71 57 23 26 122 54 68 113 70 70 2 124 19 22 10 113 124 124 70 56 11 68 1 17 68 107 108 122 107 113 113 11 8 17 40 54 114 90 122 80 54 33
split_gain=31.133 23.1046 20.864 20.2718 14.5565 9.06009 7.87347 6.59668 6.53071 5.4926 4.23406 8.75374 4.08393 4.05296 3.90393 3.9838 5.30008 4.39315 4.24053 4.13337 3.74379 4.10492 4.03905 3.64376 3.62266 3.46211 3.27049 7.57398 4.65803 3.24937 3.41957 3.5056 3.23481 3.11898 3.65545 3.11649 3.08033 3.2299 3.04244 4.01355 2.99934 3.11337 2.8923 2.96214 4.5303 2.9773 4.14585 3.97351 4.91856 3.77554 3.67147 3.52281 4.02091 3.4592 3.32372 2.96711 2.90002 4.77034 4.77907
threshold=1.5000000000000002 5.5000000000000009 3.5000000000000004 1.0000000180025095e-35 1.0000000180025095e-35 1.0000000180025095e-35 1.0000000180025095e-35 1.5000000000000002 1.0000000180025095e-35 3.5000000000000004 129.50000000000003 20.500000000000004 1.5000000000000002 2.5000000000000004 19.500000000000004 1.5000000000000002 14.500000000000002 2.5000000000000004 1.0000000180025095e-35 1.0000000180025095e-35 1.0000000180025095e-35 38.500000000000007 3.5000000000000004 10.500000000000002 2.5000000000000004 3.5000000000000004 2.5000000000000004 1.0000000180025095e-35 1.5000000000000002 1.0000000180025095e-35 6.5000000000000009 1.0000000180025095e-35 2.5000000000000004 4.5000000000000009 2.5000000000000004 3.5000000000000004 1.0000000180025095e-35 1.5000000000000002 3.5000000000000004 1.0000000180025095e-35 3.5000000000000004 13.500000000000002 28.500000000000004 1.0000000180025095e-35 65.500000000000014 3.5000000000000004 3.5000000000000004 4.5000000000000009 1.0000000180025095e-35 1.0000000180025095e-35 1.0000000180025095e-35 1.0000000180025095e-35 1.0000000180025095e-35 1.0000000180025095e-35 1.0000000180025095e-35 32.500000000000007 3.5000000000000004 2.5000000000000004 9.5000000000000018
decision_type=2 2 2 2 2 2 2 2 2 2 2 2 2 2 2 2 2 2 2 2 2 2 2 2 2 2 2 2 2 2 2 2 2 2 2 2 2 2 2 2 2 2 2 2 2 2 2 2 2 2 2 2 2 2 2 2 2 2 2
left_child=1 3 4 5 6 8 7 9 -1 10 11 13 -13 14 15 29 17 24 -19 -18 21 -4 -23 -8 -17 -2 27 28 32 30 31 36 -7 34 -20 -22 37 42 -5 -40 -12 -42 43 45 -45 50 49 54 53 51 -3 52 55 -49 -48 -47 57 -55 -59
right_child=25 2 20 38 -6 26 23 -9 -10 -11 40 12 -14 -15 -16 16 19 18 33 -21 35 22 -24 -25 -26 -27 -28 -29 -30 -31 -32 -33 -34 -35 -36 -37 -38 -39 39 -41 41 -43 -44 44 -46 46 47 48 -50 -51 -52 -53 -54 56 -56 -57 -58 58 -60
leaf_value=-0.00063140609794828137 -0.004954539595401538 0.0041289243379871027 -0.0054936358727953839 -0.0056319832532313249 -0.0029022560088366061 0.0066263824953082598 -0.002706752068809951 0.010246154727141552 -0.005054807861183579 -0.0062424727475799847 -0.0053835503237417174 0.0055264645364001041 0.014200511912771717 0.0098783997653039031 -0.0049561021952132973 0.0011973909163358501 0.012069760624577604 0.0065491959154398965 0.0028119545558720942 0.0020161260378295472 -0.0056484895618858031 0.0058483284672243164 -0.0014110856568172151 0.0033551478575899406 -0.002701978812433949 0.0013360167161032763 0.00065091467633071891 -0.0031050590043409975 -0.00031882962062093845 -0.0019979322668625841 0.0091972878379807683 0.0083325654782012721 0.014422371084582735 0.0059354282356022603 -0.0039081899702048126 -0.00058816237007070405 -0.0015612484006863293 0.009166473656149695 -0.0035615307635168962 0.0047708843245700527 0.0053461028121444725 -0.0035161989543739131 -0.0035454992799732405 0.011341987301279149 0.00080828126999286422 0.002607969450025296 0.0030615550928099824 0.0075632517869035935 0.009812161275170591 0.0092563992119531965 -0.002646209029391282 -0.00063962781938045794 0.0032864051924623734 -0.0014596392070152524 -0.0030696525897553686 0.010718611928829318 -0.0029352905298796728 0.00023312069747988756 0.010873429942870685
leaf_count=6140 522 39 42 263 207 53 151 32 107 24 37 55 24 21 24 134 22 56 48 30 163 36 71 39 167 29 122 30 21 44 26 34 24 28 53 50 53 24 200 20 27 23 23 30 22 21 40 27 27 36 69 61 485 52 88 42 47 24 29
internal_value=0 -0.0280664 0.104152 -0.083334 0.16035 -0.0574239 0.199902 0.23024 -0.0706645 0.21821 0.227798 0.244252 0.817208 0.220551 0.212018 0.221029 0.0926352 0.0351986 0.249054 0.627125 -0.294181 -0.0796049 0.103694 -0.145717 -0.0965754 -0.462122 0.272114 0.469075 0.705447 0.272356 0.288291 0.275328 0.905748 0.0732646 -0.0712843 -0.445587 0.25998 0.278561 -0.43422 -0.280375 -0.154944 0.127347 0.265288 0.277778 0.688831 0.258101 0.28873 0.12913 0.280815 0.37124 -0.0200197 0.338426 0.383107 0.1747 -0.115025 0.801709 0.0712128 0.234175 0.606295
internal_count=10438 9887 2907 6980 2545 6497 2338 2148 6247 2116 2092 2005 79 1926 1905 1881 538 486 185 52 362 149 107 190 301 551 250 128 98 1343 1299 1273 77 129 101 213 1239 1186 483 220 87 50 1162 1139 52 1087 979 334 206 645 108 609 548 179 128 63 152 105 53
shrinkage=0.01


Tree=19
num_leaves=60
num_cat=0
split_feature=79 82 122 122 122 124 70 123 83 80 126 82 124 122 126 107 83 70 61 80 96 111 21 70 122 126 122 36 126 80 3 16 36 122 22 59 122 124 79 122 40 113 68 123 122 93 93 22 122 68 107 126 107 68 126 123 123 23 3
split_gain=309.796 130.721 58.9723 46.1606 72.4811 27.1782 20.7781 19.4528 15.2188 15.2087 14.5007 13.7176 12.9079 12.6554 10.3463 9.73775 9.03318 7.31584 9.66562 7.00889 6.90145 6.6255 5.72764 5.60791 13.8858 5.59368 5.24136 4.51818 4.50918 4.33828 4.07444 4.68315 4.0206 3.92753 6.69948 3.89877 3.80126 3.54318 3.45371 3.40812 3.27615 3.01604 3.01058 3.17103 2.95879 2.79564 2.78639 2.69125 2.74229 3.55983 2.61806 2.46004 2.93549 2.81833 2.38851 2.25406 2.23015 2.18471 2.49733
threshold=1.0000000180025095e-35 1.0000000180025095e-35 65.500000000000014 1.0000000180025095e-35 48.500000000000007 1.0000000180025095e-35 1.5000000000000002 26.500000000000004 1.0000000180025095e-35 4.5000000000000009 40.500000000000007 1.0000000180025095e-35 1.5000000000000002 43.500000000000007 11.500000000000002 23.500000000000004 1.0000000180025095e-35 2.5000000000000004 1.0000000180025095e-35 1.5000000000000002 1.0000000180025095e-35 2.5000000000000004 1.0000000180025095e-35 3.5000000000000004 118.50000000000001 34.500000000000007 39.500000000000007 1.5000000000000002 3.5000000000000004 2.5000000000000004 2.5000000000000004 1.0000000180025095e-35 4.5000000000000009 107.50000000000001 1.5000000000000002 2.5000000000000004 129.50000000000003 1.5000000000000002 1.5000000000000002 63.500000000000007 1.0000000180025095e-35 5.5000000000000009 3.5000000000000004 23.500000000000004 103.50000000000001 1.0000000180025095e-35 1.5000000000000002 1.0000000180025095e-35 30.500000000000004 7.5000000000000009 16.500000000000004 21.500000000000004 8.5000000000000018 8.5000000000000018 15.500000000000002 19.500000000000004 43.500000000000007 1.0000000180025095e-35 1.0000000180025095e-35
decision_type=2 2 2 2 2 2 2 2 2 2 2 2 2 2 2 2 2 2 2 2 2 2 2 2 2 2 2 2 2 2 2 2 2 2 2 2 2 2 2 2 2 2 2 2 2 2 2 2 2 2 2 2 2 2 2 2 2 2 2
left_child=1 3 6 -1 8 7 13 14 29 20 15 12 23 42 -6 32 33 18 -18 -3 30 -16 26 25 -25 35 28 -15 -10 -5 31 39 41 -7 -35 46 -14 -19 -27 -9 -12 56 -2 -44 -13 -30 54 48 -8 -50 -21 52 -31 -54 -4 -47 -11 -41 -59
right_child=2 19 11 4 5 16 47 9 22 10 40 44 36 27 21 -17 17 37 -20 50 -22 -23 -24 24 -26 38 -28 -29 45 51 -32 -33 -34 34 -36 -37 -38 -39 -40 57 -42 -43 43 -45 -46 55 -48 -49 49 -51 -52 -53 53 -55 -56 -57 -58 58 -60
leaf_value=-0.00063204190068125697 -0.0016357461542211111 0.0081409659447870524 0.015615612006324229 -0.0051554028271535548 0.01818969342725903 -0.0038349410415664128 -0.0049407975219643973 -0.0035102470532856977 0.0064746431541889572 0.0044137448721758409 0.0040797126314193197 0.016363787048365847 0.00038121395389031129 0.016600643854434806 0.00071434526163849084 0.015986468848830121 0.013863759470823031 0.0046280525341614101 -0.0018126638950831189 0.014991978785554335 0.0058419592891610266 0.013669673148039813 -0.0056709376110546375 0.00059108404409968448 0.018323676679290409 0.0052985343847671449 0.0051236119661597227 0.0089805789724443693 -0.0039059335749855833 -0.0034230494091715205 -0.0057000317433300619 0.0076966248981088546 0.011153070144065311 0.0057840269510944075 -0.0062515508201647562 0.020071107436643289 0.0103696041290567 -0.0042451078991585659 0.015291415013381215 -0.002605811870918363 -0.00405883224270442 0.0091248547474301715 0.0087421450465559394 -4.8317874914217164e-05 0.022297901719947121 0.0056925687036431041 0.018995244116006216 -0.006236869773115437 0.005193696547970408 -0.0035099193298334776 0.020632682511219348 -0.0058412755735185382 0.0026977218414758774 -0.0047967416967721714 0.0073131031596081336 -0.0019225032466206136 -0.0033001534957371654 0.0051987190334821121 -0.0020215983833304523
leaf_count=5211 27 28 22 2536 35 418 24 103 22 26 24 40 28 45 31 41 29 20 21 46 46 20 56 27 27 21 60 50 94 213 58 20 30 36 24 81 20 47 21 34 43 20 35 20 69 21 25 27 41 23 55 81 56 22 20 29 21 46 22
